digraph Tree {
node [shape=box, style="filled, rounded", color="black", fontname="helvetica"] ;
edge [fontname="helvetica"] ;
0 [label=<Contract &le; 0.5<br/>gini = 0.388<br/>samples = 3107<br/>value = [3628, 1294]<br/>class = 0>, fillcolor="#eeae80"] ;
1 [label=<MonthlyCharges &le; 0.159<br/>gini = 0.488<br/>samples = 1699<br/>value = [1564, 1151]<br/>class = 0>, fillcolor="#f8decb"] ;
0 -> 1 [labeldistance=2.5, labelangle=45, headlabel="True"] ;
2 [label=<OnlineSecurity &le; 0.5<br/>gini = 0.408<br/>samples = 758<br/>value = [854, 341]<br/>class = 0>, fillcolor="#efb388"] ;
1 -> 2 ;
3 [label=<tenure &le; -1.097<br/>gini = 0.469<br/>samples = 386<br/>value = [384.0, 230.0]<br/>class = 0>, fillcolor="#f5ccb0"] ;
2 -> 3 ;
4 [label=<TotalCharges &le; -0.947<br/>gini = 0.487<br/>samples = 182<br/>value = [123.0, 170.0]<br/>class = 1>, fillcolor="#c8e4f8"] ;
3 -> 4 ;
5 [label=<PaperlessBilling &le; 0.5<br/>gini = 0.464<br/>samples = 140<br/>value = [83, 144]<br/>class = 1>, fillcolor="#abd5f4"] ;
4 -> 5 ;
6 [label=<StreamingMovies &le; 1.0<br/>gini = 0.495<br/>samples = 56<br/>value = [40, 49]<br/>class = 1>, fillcolor="#dbedfa"] ;
5 -> 6 ;
7 [label=<PhoneService &le; 0.5<br/>gini = 0.498<br/>samples = 54<br/>value = [40.0, 46.0]<br/>class = 1>, fillcolor="#e5f2fc"] ;
6 -> 7 ;
8 [label=<DeviceProtection &le; 1.0<br/>gini = 0.466<br/>samples = 17<br/>value = [17, 10]<br/>class = 0>, fillcolor="#f4cbad"] ;
7 -> 8 ;
9 [label=<gender &le; 0.5<br/>gini = 0.48<br/>samples = 16<br/>value = [15, 10]<br/>class = 0>, fillcolor="#f6d5bd"] ;
8 -> 9 ;
10 [label=<tenure &le; -1.158<br/>gini = 0.492<br/>samples = 9<br/>value = [7, 9]<br/>class = 1>, fillcolor="#d3e9f9"] ;
9 -> 10 ;
11 [label=<PaymentMethod &le; 1.0<br/>gini = 0.5<br/>samples = 8<br/>value = [7, 7]<br/>class = 0>, fillcolor="#ffffff"] ;
10 -> 11 ;
12 [label=<gini = 0.0<br/>samples = 1<br/>value = [1, 0]<br/>class = 0>, fillcolor="#e58139"] ;
11 -> 12 ;
13 [label=<OnlineBackup &le; 1.0<br/>gini = 0.497<br/>samples = 7<br/>value = [6, 7]<br/>class = 1>, fillcolor="#e3f1fb"] ;
11 -> 13 ;
14 [label=<tenure &le; -1.24<br/>gini = 0.346<br/>samples = 5<br/>value = [2, 7]<br/>class = 1>, fillcolor="#72b9ec"] ;
13 -> 14 ;
15 [label=<TechSupport &le; 1.0<br/>gini = 0.375<br/>samples = 4<br/>value = [2, 6]<br/>class = 1>, fillcolor="#7bbeee"] ;
14 -> 15 ;
16 [label=<SeniorCitizen &le; 0.5<br/>gini = 0.245<br/>samples = 3<br/>value = [1, 6]<br/>class = 1>, fillcolor="#5aade9"] ;
15 -> 16 ;
17 [label=<TotalCharges &le; -0.996<br/>gini = 0.278<br/>samples = 2<br/>value = [1, 5]<br/>class = 1>, fillcolor="#61b1ea"] ;
16 -> 17 ;
18 [label=<gini = 0.0<br/>samples = 1<br/>value = [1, 0]<br/>class = 0>, fillcolor="#e58139"] ;
17 -> 18 ;
19 [label=<gini = 0.0<br/>samples = 1<br/>value = [0, 5]<br/>class = 1>, fillcolor="#399de5"] ;
17 -> 19 ;
20 [label=<gini = 0.0<br/>samples = 1<br/>value = [0, 1]<br/>class = 1>, fillcolor="#399de5"] ;
16 -> 20 ;
21 [label=<gini = 0.0<br/>samples = 1<br/>value = [1, 0]<br/>class = 0>, fillcolor="#e58139"] ;
15 -> 21 ;
22 [label=<gini = 0.0<br/>samples = 1<br/>value = [0, 1]<br/>class = 1>, fillcolor="#399de5"] ;
14 -> 22 ;
23 [label=<gini = 0.0<br/>samples = 2<br/>value = [4, 0]<br/>class = 0>, fillcolor="#e58139"] ;
13 -> 23 ;
24 [label=<gini = 0.0<br/>samples = 1<br/>value = [0, 2]<br/>class = 1>, fillcolor="#399de5"] ;
10 -> 24 ;
25 [label=<TotalCharges &le; -0.994<br/>gini = 0.198<br/>samples = 7<br/>value = [8, 1]<br/>class = 0>, fillcolor="#e89152"] ;
9 -> 25 ;
26 [label=<gini = 0.0<br/>samples = 1<br/>value = [0, 1]<br/>class = 1>, fillcolor="#399de5"] ;
25 -> 26 ;
27 [label=<gini = 0.0<br/>samples = 6<br/>value = [8, 0]<br/>class = 0>, fillcolor="#e58139"] ;
25 -> 27 ;
28 [label=<gini = 0.0<br/>samples = 1<br/>value = [2, 0]<br/>class = 0>, fillcolor="#e58139"] ;
8 -> 28 ;
29 [label=<MonthlyCharges &le; -0.671<br/>gini = 0.476<br/>samples = 37<br/>value = [23, 36]<br/>class = 1>, fillcolor="#b8dcf6"] ;
7 -> 29 ;
30 [label=<PaymentMethod &le; 2.5<br/>gini = 0.455<br/>samples = 12<br/>value = [13, 7]<br/>class = 0>, fillcolor="#f3c5a4"] ;
29 -> 30 ;
31 [label=<PaymentMethod &le; 1.5<br/>gini = 0.26<br/>samples = 7<br/>value = [11, 2]<br/>class = 0>, fillcolor="#ea985d"] ;
30 -> 31 ;
32 [label=<gini = 0.0<br/>samples = 1<br/>value = [2, 0]<br/>class = 0>, fillcolor="#e58139"] ;
31 -> 32 ;
33 [label=<Dependents &le; 0.5<br/>gini = 0.298<br/>samples = 6<br/>value = [9, 2]<br/>class = 0>, fillcolor="#eb9d65"] ;
31 -> 33 ;
34 [label=<gender &le; 0.5<br/>gini = 0.32<br/>samples = 5<br/>value = [8, 2]<br/>class = 0>, fillcolor="#eca06a"] ;
33 -> 34 ;
35 [label=<gini = 0.0<br/>samples = 3<br/>value = [6, 0]<br/>class = 0>, fillcolor="#e58139"] ;
34 -> 35 ;
36 [label=<tenure &le; -1.26<br/>gini = 0.5<br/>samples = 2<br/>value = [2, 2]<br/>class = 0>, fillcolor="#ffffff"] ;
34 -> 36 ;
37 [label=<gini = 0.0<br/>samples = 1<br/>value = [2, 0]<br/>class = 0>, fillcolor="#e58139"] ;
36 -> 37 ;
38 [label=<gini = 0.0<br/>samples = 1<br/>value = [0, 2]<br/>class = 1>, fillcolor="#399de5"] ;
36 -> 38 ;
39 [label=<gini = 0.0<br/>samples = 1<br/>value = [1, 0]<br/>class = 0>, fillcolor="#e58139"] ;
33 -> 39 ;
40 [label=<Dependents &le; 0.5<br/>gini = 0.408<br/>samples = 5<br/>value = [2, 5]<br/>class = 1>, fillcolor="#88c4ef"] ;
30 -> 40 ;
41 [label=<TotalCharges &le; -0.988<br/>gini = 0.444<br/>samples = 4<br/>value = [2, 4]<br/>class = 1>, fillcolor="#9ccef2"] ;
40 -> 41 ;
42 [label=<gini = 0.0<br/>samples = 3<br/>value = [0, 4]<br/>class = 1>, fillcolor="#399de5"] ;
41 -> 42 ;
43 [label=<gini = 0.0<br/>samples = 1<br/>value = [2, 0]<br/>class = 0>, fillcolor="#e58139"] ;
41 -> 43 ;
44 [label=<gini = 0.0<br/>samples = 1<br/>value = [0, 1]<br/>class = 1>, fillcolor="#399de5"] ;
40 -> 44 ;
45 [label=<MonthlyCharges &le; -0.482<br/>gini = 0.381<br/>samples = 25<br/>value = [10, 29]<br/>class = 1>, fillcolor="#7dbfee"] ;
29 -> 45 ;
46 [label=<TotalCharges &le; -0.98<br/>gini = 0.452<br/>samples = 18<br/>value = [10, 19]<br/>class = 1>, fillcolor="#a1d1f3"] ;
45 -> 46 ;
47 [label=<Dependents &le; 0.5<br/>gini = 0.495<br/>samples = 14<br/>value = [9, 11]<br/>class = 1>, fillcolor="#dbedfa"] ;
46 -> 47 ;
48 [label=<MonthlyCharges &le; -0.617<br/>gini = 0.492<br/>samples = 13<br/>value = [9, 7]<br/>class = 0>, fillcolor="#f9e3d3"] ;
47 -> 48 ;
49 [label=<PaymentMethod &le; 0.5<br/>gini = 0.463<br/>samples = 9<br/>value = [4, 7]<br/>class = 1>, fillcolor="#aad5f4"] ;
48 -> 49 ;
50 [label=<gini = 0.0<br/>samples = 1<br/>value = [2, 0]<br/>class = 0>, fillcolor="#e58139"] ;
49 -> 50 ;
51 [label=<MonthlyCharges &le; -0.636<br/>gini = 0.346<br/>samples = 8<br/>value = [2, 7]<br/>class = 1>, fillcolor="#72b9ec"] ;
49 -> 51 ;
52 [label=<TotalCharges &le; -0.987<br/>gini = 0.444<br/>samples = 5<br/>value = [2, 4]<br/>class = 1>, fillcolor="#9ccef2"] ;
51 -> 52 ;
53 [label=<MonthlyCharges &le; -0.66<br/>gini = 0.32<br/>samples = 4<br/>value = [1, 4]<br/>class = 1>, fillcolor="#6ab6ec"] ;
52 -> 53 ;
54 [label=<TotalCharges &le; -0.988<br/>gini = 0.5<br/>samples = 2<br/>value = [1, 1]<br/>class = 0>, fillcolor="#ffffff"] ;
53 -> 54 ;
55 [label=<gini = 0.0<br/>samples = 1<br/>value = [0, 1]<br/>class = 1>, fillcolor="#399de5"] ;
54 -> 55 ;
56 [label=<gini = 0.0<br/>samples = 1<br/>value = [1, 0]<br/>class = 0>, fillcolor="#e58139"] ;
54 -> 56 ;
57 [label=<gini = 0.0<br/>samples = 2<br/>value = [0, 3]<br/>class = 1>, fillcolor="#399de5"] ;
53 -> 57 ;
58 [label=<gini = 0.0<br/>samples = 1<br/>value = [1, 0]<br/>class = 0>, fillcolor="#e58139"] ;
52 -> 58 ;
59 [label=<gini = 0.0<br/>samples = 3<br/>value = [0, 3]<br/>class = 1>, fillcolor="#399de5"] ;
51 -> 59 ;
60 [label=<gini = 0.0<br/>samples = 4<br/>value = [5, 0]<br/>class = 0>, fillcolor="#e58139"] ;
48 -> 60 ;
61 [label=<gini = 0.0<br/>samples = 1<br/>value = [0, 4]<br/>class = 1>, fillcolor="#399de5"] ;
47 -> 61 ;
62 [label=<DeviceProtection &le; 1.0<br/>gini = 0.198<br/>samples = 4<br/>value = [1, 8]<br/>class = 1>, fillcolor="#52a9e8"] ;
46 -> 62 ;
63 [label=<gini = 0.0<br/>samples = 3<br/>value = [0, 8]<br/>class = 1>, fillcolor="#399de5"] ;
62 -> 63 ;
64 [label=<gini = 0.0<br/>samples = 1<br/>value = [1, 0]<br/>class = 0>, fillcolor="#e58139"] ;
62 -> 64 ;
65 [label=<gini = 0.0<br/>samples = 7<br/>value = [0, 10]<br/>class = 1>, fillcolor="#399de5"] ;
45 -> 65 ;
66 [label=<gini = 0.0<br/>samples = 2<br/>value = [0, 3]<br/>class = 1>, fillcolor="#399de5"] ;
6 -> 66 ;
67 [label=<MonthlyCharges &le; -0.482<br/>gini = 0.429<br/>samples = 84<br/>value = [43, 95]<br/>class = 1>, fillcolor="#93c9f1"] ;
5 -> 67 ;
68 [label=<TotalCharges &le; -0.985<br/>gini = 0.468<br/>samples = 67<br/>value = [41, 69]<br/>class = 1>, fillcolor="#afd7f4"] ;
67 -> 68 ;
69 [label=<TotalCharges &le; -0.987<br/>gini = 0.393<br/>samples = 39<br/>value = [18, 49]<br/>class = 1>, fillcolor="#82c1ef"] ;
68 -> 69 ;
70 [label=<tenure &le; -1.26<br/>gini = 0.44<br/>samples = 29<br/>value = [16.0, 33.0]<br/>class = 1>, fillcolor="#99cdf2"] ;
69 -> 70 ;
71 [label=<Partner &le; 0.5<br/>gini = 0.444<br/>samples = 28<br/>value = [16, 32]<br/>class = 1>, fillcolor="#9ccef2"] ;
70 -> 71 ;
72 [label=<StreamingTV &le; 1.0<br/>gini = 0.426<br/>samples = 24<br/>value = [12, 27]<br/>class = 1>, fillcolor="#91c9f1"] ;
71 -> 72 ;
73 [label=<MultipleLines &le; 0.5<br/>gini = 0.432<br/>samples = 23<br/>value = [12, 26]<br/>class = 1>, fillcolor="#94caf1"] ;
72 -> 73 ;
74 [label=<MonthlyCharges &le; -0.646<br/>gini = 0.444<br/>samples = 12<br/>value = [7, 14]<br/>class = 1>, fillcolor="#9ccef2"] ;
73 -> 74 ;
75 [label=<gender &le; 0.5<br/>gini = 0.388<br/>samples = 10<br/>value = [5, 14]<br/>class = 1>, fillcolor="#80c0ee"] ;
74 -> 75 ;
76 [label=<gini = 0.0<br/>samples = 4<br/>value = [0, 9]<br/>class = 1>, fillcolor="#399de5"] ;
75 -> 76 ;
77 [label=<Dependents &le; 0.5<br/>gini = 0.5<br/>samples = 6<br/>value = [5, 5]<br/>class = 0>, fillcolor="#ffffff"] ;
75 -> 77 ;
78 [label=<MonthlyCharges &le; -0.661<br/>gini = 0.494<br/>samples = 5<br/>value = [5, 4]<br/>class = 0>, fillcolor="#fae6d7"] ;
77 -> 78 ;
79 [label=<MonthlyCharges &le; -0.705<br/>gini = 0.278<br/>samples = 4<br/>value = [5, 1]<br/>class = 0>, fillcolor="#ea9a61"] ;
78 -> 79 ;
80 [label=<gini = 0.0<br/>samples = 1<br/>value = [0, 1]<br/>class = 1>, fillcolor="#399de5"] ;
79 -> 80 ;
81 [label=<gini = 0.0<br/>samples = 3<br/>value = [5, 0]<br/>class = 0>, fillcolor="#e58139"] ;
79 -> 81 ;
82 [label=<gini = 0.0<br/>samples = 1<br/>value = [0, 3]<br/>class = 1>, fillcolor="#399de5"] ;
78 -> 82 ;
83 [label=<gini = 0.0<br/>samples = 1<br/>value = [0, 1]<br/>class = 1>, fillcolor="#399de5"] ;
77 -> 83 ;
84 [label=<gini = 0.0<br/>samples = 2<br/>value = [2, 0]<br/>class = 0>, fillcolor="#e58139"] ;
74 -> 84 ;
85 [label=<SeniorCitizen &le; 0.5<br/>gini = 0.415<br/>samples = 11<br/>value = [5, 12]<br/>class = 1>, fillcolor="#8bc6f0"] ;
73 -> 85 ;
86 [label=<MonthlyCharges &le; -1.315<br/>gini = 0.486<br/>samples = 9<br/>value = [5, 7]<br/>class = 1>, fillcolor="#c6e3f8"] ;
85 -> 86 ;
87 [label=<gender &le; 0.5<br/>gini = 0.494<br/>samples = 6<br/>value = [5, 4]<br/>class = 0>, fillcolor="#fae6d7"] ;
86 -> 87 ;
88 [label=<MonthlyCharges &le; -1.319<br/>gini = 0.5<br/>samples = 2<br/>value = [2, 2]<br/>class = 0>, fillcolor="#ffffff"] ;
87 -> 88 ;
89 [label=<gini = 0.0<br/>samples = 1<br/>value = [0, 2]<br/>class = 1>, fillcolor="#399de5"] ;
88 -> 89 ;
90 [label=<gini = 0.0<br/>samples = 1<br/>value = [2, 0]<br/>class = 0>, fillcolor="#e58139"] ;
88 -> 90 ;
91 [label=<MonthlyCharges &le; -1.325<br/>gini = 0.48<br/>samples = 4<br/>value = [3, 2]<br/>class = 0>, fillcolor="#f6d5bd"] ;
87 -> 91 ;
92 [label=<TotalCharges &le; -0.997<br/>gini = 0.375<br/>samples = 3<br/>value = [3, 1]<br/>class = 0>, fillcolor="#eeab7b"] ;
91 -> 92 ;
93 [label=<MonthlyCharges &le; -1.342<br/>gini = 0.5<br/>samples = 2<br/>value = [1, 1]<br/>class = 0>, fillcolor="#ffffff"] ;
92 -> 93 ;
94 [label=<gini = 0.0<br/>samples = 1<br/>value = [1, 0]<br/>class = 0>, fillcolor="#e58139"] ;
93 -> 94 ;
95 [label=<gini = 0.0<br/>samples = 1<br/>value = [0, 1]<br/>class = 1>, fillcolor="#399de5"] ;
93 -> 95 ;
96 [label=<gini = 0.0<br/>samples = 1<br/>value = [2, 0]<br/>class = 0>, fillcolor="#e58139"] ;
92 -> 96 ;
97 [label=<gini = 0.0<br/>samples = 1<br/>value = [0, 1]<br/>class = 1>, fillcolor="#399de5"] ;
91 -> 97 ;
98 [label=<gini = 0.0<br/>samples = 3<br/>value = [0, 3]<br/>class = 1>, fillcolor="#399de5"] ;
86 -> 98 ;
99 [label=<gini = 0.0<br/>samples = 2<br/>value = [0, 5]<br/>class = 1>, fillcolor="#399de5"] ;
85 -> 99 ;
100 [label=<gini = 0.0<br/>samples = 1<br/>value = [0, 1]<br/>class = 1>, fillcolor="#399de5"] ;
72 -> 100 ;
101 [label=<PhoneService &le; 0.5<br/>gini = 0.494<br/>samples = 4<br/>value = [4, 5]<br/>class = 1>, fillcolor="#d7ebfa"] ;
71 -> 101 ;
102 [label=<gini = 0.0<br/>samples = 2<br/>value = [0, 4]<br/>class = 1>, fillcolor="#399de5"] ;
101 -> 102 ;
103 [label=<TotalCharges &le; -0.988<br/>gini = 0.32<br/>samples = 2<br/>value = [4, 1]<br/>class = 0>, fillcolor="#eca06a"] ;
101 -> 103 ;
104 [label=<gini = 0.0<br/>samples = 1<br/>value = [0, 1]<br/>class = 1>, fillcolor="#399de5"] ;
103 -> 104 ;
105 [label=<gini = 0.0<br/>samples = 1<br/>value = [4, 0]<br/>class = 0>, fillcolor="#e58139"] ;
103 -> 105 ;
106 [label=<gini = 0.0<br/>samples = 1<br/>value = [0, 1]<br/>class = 1>, fillcolor="#399de5"] ;
70 -> 106 ;
107 [label=<Dependents &le; 0.5<br/>gini = 0.198<br/>samples = 10<br/>value = [2, 16]<br/>class = 1>, fillcolor="#52a9e8"] ;
69 -> 107 ;
108 [label=<SeniorCitizen &le; 0.5<br/>gini = 0.298<br/>samples = 7<br/>value = [2, 9]<br/>class = 1>, fillcolor="#65b3eb"] ;
107 -> 108 ;
109 [label=<OnlineBackup &le; 1.0<br/>gini = 0.18<br/>samples = 6<br/>value = [1, 9]<br/>class = 1>, fillcolor="#4fa8e8"] ;
108 -> 109 ;
110 [label=<gini = 0.0<br/>samples = 5<br/>value = [0, 9]<br/>class = 1>, fillcolor="#399de5"] ;
109 -> 110 ;
111 [label=<gini = 0.0<br/>samples = 1<br/>value = [1, 0]<br/>class = 0>, fillcolor="#e58139"] ;
109 -> 111 ;
112 [label=<gini = 0.0<br/>samples = 1<br/>value = [1, 0]<br/>class = 0>, fillcolor="#e58139"] ;
108 -> 112 ;
113 [label=<gini = 0.0<br/>samples = 3<br/>value = [0, 7]<br/>class = 1>, fillcolor="#399de5"] ;
107 -> 113 ;
114 [label=<StreamingMovies &le; 1.0<br/>gini = 0.498<br/>samples = 28<br/>value = [23.0, 20.0]<br/>class = 0>, fillcolor="#fcefe5"] ;
68 -> 114 ;
115 [label=<TotalCharges &le; -0.967<br/>gini = 0.478<br/>samples = 25<br/>value = [23, 15]<br/>class = 0>, fillcolor="#f6d3ba"] ;
114 -> 115 ;
116 [label=<Dependents &le; 0.5<br/>gini = 0.34<br/>samples = 15<br/>value = [18, 5]<br/>class = 0>, fillcolor="#eca470"] ;
115 -> 116 ;
117 [label=<OnlineBackup &le; 1.0<br/>gini = 0.363<br/>samples = 13<br/>value = [16, 5]<br/>class = 0>, fillcolor="#eda877"] ;
116 -> 117 ;
118 [label=<MultipleLines &le; 0.5<br/>gini = 0.208<br/>samples = 10<br/>value = [15, 2]<br/>class = 0>, fillcolor="#e89253"] ;
117 -> 118 ;
119 [label=<gini = 0.0<br/>samples = 5<br/>value = [8, 0]<br/>class = 0>, fillcolor="#e58139"] ;
118 -> 119 ;
120 [label=<MonthlyCharges &le; -1.334<br/>gini = 0.346<br/>samples = 5<br/>value = [7, 2]<br/>class = 0>, fillcolor="#eca572"] ;
118 -> 120 ;
121 [label=<gini = 0.0<br/>samples = 1<br/>value = [0, 1]<br/>class = 1>, fillcolor="#399de5"] ;
120 -> 121 ;
122 [label=<TotalCharges &le; -0.983<br/>gini = 0.219<br/>samples = 4<br/>value = [7, 1]<br/>class = 0>, fillcolor="#e99355"] ;
120 -> 122 ;
123 [label=<gini = 0.0<br/>samples = 3<br/>value = [7, 0]<br/>class = 0>, fillcolor="#e58139"] ;
122 -> 123 ;
124 [label=<gini = 0.0<br/>samples = 1<br/>value = [0, 1]<br/>class = 1>, fillcolor="#399de5"] ;
122 -> 124 ;
125 [label=<gender &le; 0.5<br/>gini = 0.375<br/>samples = 3<br/>value = [1, 3]<br/>class = 1>, fillcolor="#7bbeee"] ;
117 -> 125 ;
126 [label=<gini = 0.0<br/>samples = 1<br/>value = [1, 0]<br/>class = 0>, fillcolor="#e58139"] ;
125 -> 126 ;
127 [label=<gini = 0.0<br/>samples = 2<br/>value = [0, 3]<br/>class = 1>, fillcolor="#399de5"] ;
125 -> 127 ;
128 [label=<gini = 0.0<br/>samples = 2<br/>value = [2, 0]<br/>class = 0>, fillcolor="#e58139"] ;
116 -> 128 ;
129 [label=<gender &le; 0.5<br/>gini = 0.444<br/>samples = 10<br/>value = [5, 10]<br/>class = 1>, fillcolor="#9ccef2"] ;
115 -> 129 ;
130 [label=<MonthlyCharges &le; -0.573<br/>gini = 0.469<br/>samples = 6<br/>value = [5, 3]<br/>class = 0>, fillcolor="#f5cdb0"] ;
129 -> 130 ;
131 [label=<PhoneService &le; 0.5<br/>gini = 0.278<br/>samples = 4<br/>value = [5, 1]<br/>class = 0>, fillcolor="#ea9a61"] ;
130 -> 131 ;
132 [label=<PaymentMethod &le; 2.5<br/>gini = 0.5<br/>samples = 2<br/>value = [1, 1]<br/>class = 0>, fillcolor="#ffffff"] ;
131 -> 132 ;
133 [label=<gini = 0.0<br/>samples = 1<br/>value = [1, 0]<br/>class = 0>, fillcolor="#e58139"] ;
132 -> 133 ;
134 [label=<gini = 0.0<br/>samples = 1<br/>value = [0, 1]<br/>class = 1>, fillcolor="#399de5"] ;
132 -> 134 ;
135 [label=<gini = 0.0<br/>samples = 2<br/>value = [4, 0]<br/>class = 0>, fillcolor="#e58139"] ;
131 -> 135 ;
136 [label=<gini = 0.0<br/>samples = 2<br/>value = [0, 2]<br/>class = 1>, fillcolor="#399de5"] ;
130 -> 136 ;
137 [label=<gini = 0.0<br/>samples = 4<br/>value = [0, 7]<br/>class = 1>, fillcolor="#399de5"] ;
129 -> 137 ;
138 [label=<gini = 0.0<br/>samples = 3<br/>value = [0, 5]<br/>class = 1>, fillcolor="#399de5"] ;
114 -> 138 ;
139 [label=<gender &le; 0.5<br/>gini = 0.133<br/>samples = 17<br/>value = [2, 26]<br/>class = 1>, fillcolor="#48a5e7"] ;
67 -> 139 ;
140 [label=<gini = 0.0<br/>samples = 8<br/>value = [0, 18]<br/>class = 1>, fillcolor="#399de5"] ;
139 -> 140 ;
141 [label=<TotalCharges &le; -0.978<br/>gini = 0.32<br/>samples = 9<br/>value = [2, 8]<br/>class = 1>, fillcolor="#6ab6ec"] ;
139 -> 141 ;
142 [label=<TotalCharges &le; -0.982<br/>gini = 0.48<br/>samples = 5<br/>value = [2, 3]<br/>class = 1>, fillcolor="#bddef6"] ;
141 -> 142 ;
143 [label=<gini = 0.0<br/>samples = 3<br/>value = [0, 3]<br/>class = 1>, fillcolor="#399de5"] ;
142 -> 143 ;
144 [label=<gini = 0.0<br/>samples = 2<br/>value = [2, 0]<br/>class = 0>, fillcolor="#e58139"] ;
142 -> 144 ;
145 [label=<gini = 0.0<br/>samples = 4<br/>value = [0, 5]<br/>class = 1>, fillcolor="#399de5"] ;
141 -> 145 ;
146 [label=<MultipleLines &le; 1.5<br/>gini = 0.478<br/>samples = 42<br/>value = [40, 26]<br/>class = 0>, fillcolor="#f6d3ba"] ;
4 -> 146 ;
147 [label=<OnlineBackup &le; 1.0<br/>gini = 0.444<br/>samples = 34<br/>value = [36, 18]<br/>class = 0>, fillcolor="#f2c09c"] ;
146 -> 147 ;
148 [label=<MonthlyCharges &le; -0.476<br/>gini = 0.484<br/>samples = 24<br/>value = [23, 16]<br/>class = 0>, fillcolor="#f7d9c3"] ;
147 -> 148 ;
149 [label=<MonthlyCharges &le; -0.64<br/>gini = 0.388<br/>samples = 11<br/>value = [5, 14]<br/>class = 1>, fillcolor="#80c0ee"] ;
148 -> 149 ;
150 [label=<SeniorCitizen &le; 0.5<br/>gini = 0.494<br/>samples = 6<br/>value = [5, 4]<br/>class = 0>, fillcolor="#fae6d7"] ;
149 -> 150 ;
151 [label=<PaperlessBilling &le; 0.5<br/>gini = 0.49<br/>samples = 5<br/>value = [3, 4]<br/>class = 1>, fillcolor="#cee6f8"] ;
150 -> 151 ;
152 [label=<StreamingMovies &le; 1.0<br/>gini = 0.444<br/>samples = 2<br/>value = [2, 1]<br/>class = 0>, fillcolor="#f2c09c"] ;
151 -> 152 ;
153 [label=<gini = 0.0<br/>samples = 1<br/>value = [2, 0]<br/>class = 0>, fillcolor="#e58139"] ;
152 -> 153 ;
154 [label=<gini = 0.0<br/>samples = 1<br/>value = [0, 1]<br/>class = 1>, fillcolor="#399de5"] ;
152 -> 154 ;
155 [label=<PaymentMethod &le; 1.5<br/>gini = 0.375<br/>samples = 3<br/>value = [1, 3]<br/>class = 1>, fillcolor="#7bbeee"] ;
151 -> 155 ;
156 [label=<gini = 0.0<br/>samples = 1<br/>value = [1, 0]<br/>class = 0>, fillcolor="#e58139"] ;
155 -> 156 ;
157 [label=<gini = 0.0<br/>samples = 2<br/>value = [0, 3]<br/>class = 1>, fillcolor="#399de5"] ;
155 -> 157 ;
158 [label=<gini = 0.0<br/>samples = 1<br/>value = [2, 0]<br/>class = 0>, fillcolor="#e58139"] ;
150 -> 158 ;
159 [label=<gini = 0.0<br/>samples = 5<br/>value = [0, 10]<br/>class = 1>, fillcolor="#399de5"] ;
149 -> 159 ;
160 [label=<StreamingTV &le; 1.0<br/>gini = 0.18<br/>samples = 13<br/>value = [18, 2]<br/>class = 0>, fillcolor="#e88f4f"] ;
148 -> 160 ;
161 [label=<TechSupport &le; 1.0<br/>gini = 0.278<br/>samples = 8<br/>value = [10, 2]<br/>class = 0>, fillcolor="#ea9a61"] ;
160 -> 161 ;
162 [label=<Partner &le; 0.5<br/>gini = 0.444<br/>samples = 5<br/>value = [4, 2]<br/>class = 0>, fillcolor="#f2c09c"] ;
161 -> 162 ;
163 [label=<gini = 0.0<br/>samples = 2<br/>value = [0, 2]<br/>class = 1>, fillcolor="#399de5"] ;
162 -> 163 ;
164 [label=<gini = 0.0<br/>samples = 3<br/>value = [4, 0]<br/>class = 0>, fillcolor="#e58139"] ;
162 -> 164 ;
165 [label=<gini = 0.0<br/>samples = 3<br/>value = [6, 0]<br/>class = 0>, fillcolor="#e58139"] ;
161 -> 165 ;
166 [label=<gini = 0.0<br/>samples = 5<br/>value = [8, 0]<br/>class = 0>, fillcolor="#e58139"] ;
160 -> 166 ;
167 [label=<gender &le; 0.5<br/>gini = 0.231<br/>samples = 10<br/>value = [13, 2]<br/>class = 0>, fillcolor="#e99457"] ;
147 -> 167 ;
168 [label=<gini = 0.0<br/>samples = 4<br/>value = [8, 0]<br/>class = 0>, fillcolor="#e58139"] ;
167 -> 168 ;
169 [label=<TechSupport &le; 1.0<br/>gini = 0.408<br/>samples = 6<br/>value = [5, 2]<br/>class = 0>, fillcolor="#efb388"] ;
167 -> 169 ;
170 [label=<MonthlyCharges &le; -0.528<br/>gini = 0.48<br/>samples = 4<br/>value = [3, 2]<br/>class = 0>, fillcolor="#f6d5bd"] ;
169 -> 170 ;
171 [label=<gini = 0.0<br/>samples = 1<br/>value = [0, 1]<br/>class = 1>, fillcolor="#399de5"] ;
170 -> 171 ;
172 [label=<tenure &le; -1.138<br/>gini = 0.375<br/>samples = 3<br/>value = [3, 1]<br/>class = 0>, fillcolor="#eeab7b"] ;
170 -> 172 ;
173 [label=<gini = 0.0<br/>samples = 2<br/>value = [3, 0]<br/>class = 0>, fillcolor="#e58139"] ;
172 -> 173 ;
174 [label=<gini = 0.0<br/>samples = 1<br/>value = [0, 1]<br/>class = 1>, fillcolor="#399de5"] ;
172 -> 174 ;
175 [label=<gini = 0.0<br/>samples = 2<br/>value = [2, 0]<br/>class = 0>, fillcolor="#e58139"] ;
169 -> 175 ;
176 [label=<Dependents &le; 0.5<br/>gini = 0.444<br/>samples = 8<br/>value = [4, 8]<br/>class = 1>, fillcolor="#9ccef2"] ;
146 -> 176 ;
177 [label=<PaymentMethod &le; 2.5<br/>gini = 0.5<br/>samples = 6<br/>value = [4, 4]<br/>class = 0>, fillcolor="#ffffff"] ;
176 -> 177 ;
178 [label=<TotalCharges &le; -0.903<br/>gini = 0.49<br/>samples = 5<br/>value = [4, 3]<br/>class = 0>, fillcolor="#f8e0ce"] ;
177 -> 178 ;
179 [label=<PaperlessBilling &le; 0.5<br/>gini = 0.375<br/>samples = 3<br/>value = [1, 3]<br/>class = 1>, fillcolor="#7bbeee"] ;
178 -> 179 ;
180 [label=<tenure &le; -1.138<br/>gini = 0.444<br/>samples = 2<br/>value = [1, 2]<br/>class = 1>, fillcolor="#9ccef2"] ;
179 -> 180 ;
181 [label=<gini = 0.0<br/>samples = 1<br/>value = [1, 0]<br/>class = 0>, fillcolor="#e58139"] ;
180 -> 181 ;
182 [label=<gini = 0.0<br/>samples = 1<br/>value = [0, 2]<br/>class = 1>, fillcolor="#399de5"] ;
180 -> 182 ;
183 [label=<gini = 0.0<br/>samples = 1<br/>value = [0, 1]<br/>class = 1>, fillcolor="#399de5"] ;
179 -> 183 ;
184 [label=<gini = 0.0<br/>samples = 2<br/>value = [3, 0]<br/>class = 0>, fillcolor="#e58139"] ;
178 -> 184 ;
185 [label=<gini = 0.0<br/>samples = 1<br/>value = [0, 1]<br/>class = 1>, fillcolor="#399de5"] ;
177 -> 185 ;
186 [label=<gini = 0.0<br/>samples = 2<br/>value = [0, 4]<br/>class = 1>, fillcolor="#399de5"] ;
176 -> 186 ;
187 [label=<MonthlyCharges &le; -0.199<br/>gini = 0.304<br/>samples = 204<br/>value = [261, 60]<br/>class = 0>, fillcolor="#eb9e67"] ;
3 -> 187 ;
188 [label=<TotalCharges &le; -0.121<br/>gini = 0.344<br/>samples = 161<br/>value = [194, 55]<br/>class = 0>, fillcolor="#eca571"] ;
187 -> 188 ;
189 [label=<MultipleLines &le; 0.5<br/>gini = 0.31<br/>samples = 143<br/>value = [177, 42]<br/>class = 0>, fillcolor="#eb9f68"] ;
188 -> 189 ;
190 [label=<Dependents &le; 0.5<br/>gini = 0.26<br/>samples = 61<br/>value = [77, 14]<br/>class = 0>, fillcolor="#ea985d"] ;
189 -> 190 ;
191 [label=<tenure &le; -0.852<br/>gini = 0.331<br/>samples = 45<br/>value = [49, 13]<br/>class = 0>, fillcolor="#eca26e"] ;
190 -> 191 ;
192 [label=<PaperlessBilling &le; 0.5<br/>gini = 0.488<br/>samples = 20<br/>value = [15.0, 11.0]<br/>class = 0>, fillcolor="#f8ddca"] ;
191 -> 192 ;
193 [label=<MonthlyCharges &le; -0.651<br/>gini = 0.278<br/>samples = 9<br/>value = [10, 2]<br/>class = 0>, fillcolor="#ea9a61"] ;
192 -> 193 ;
194 [label=<TotalCharges &le; -0.874<br/>gini = 0.444<br/>samples = 3<br/>value = [1, 2]<br/>class = 1>, fillcolor="#9ccef2"] ;
193 -> 194 ;
195 [label=<gini = 0.0<br/>samples = 1<br/>value = [0, 1]<br/>class = 1>, fillcolor="#399de5"] ;
194 -> 195 ;
196 [label=<PaymentMethod &le; 2.5<br/>gini = 0.5<br/>samples = 2<br/>value = [1, 1]<br/>class = 0>, fillcolor="#ffffff"] ;
194 -> 196 ;
197 [label=<gini = 0.0<br/>samples = 1<br/>value = [0, 1]<br/>class = 1>, fillcolor="#399de5"] ;
196 -> 197 ;
198 [label=<gini = 0.0<br/>samples = 1<br/>value = [1, 0]<br/>class = 0>, fillcolor="#e58139"] ;
196 -> 198 ;
199 [label=<gini = 0.0<br/>samples = 6<br/>value = [9, 0]<br/>class = 0>, fillcolor="#e58139"] ;
193 -> 199 ;
200 [label=<tenure &le; -0.934<br/>gini = 0.459<br/>samples = 11<br/>value = [5, 9]<br/>class = 1>, fillcolor="#a7d3f3"] ;
192 -> 200 ;
201 [label=<DeviceProtection &le; 1.0<br/>gini = 0.5<br/>samples = 8<br/>value = [5, 5]<br/>class = 0>, fillcolor="#ffffff"] ;
200 -> 201 ;
202 [label=<gender &le; 0.5<br/>gini = 0.494<br/>samples = 7<br/>value = [4, 5]<br/>class = 1>, fillcolor="#d7ebfa"] ;
201 -> 202 ;
203 [label=<TotalCharges &le; -0.869<br/>gini = 0.49<br/>samples = 5<br/>value = [3, 4]<br/>class = 1>, fillcolor="#cee6f8"] ;
202 -> 203 ;
204 [label=<gini = 0.0<br/>samples = 2<br/>value = [0, 2]<br/>class = 1>, fillcolor="#399de5"] ;
203 -> 204 ;
205 [label=<PaymentMethod &le; 1.0<br/>gini = 0.48<br/>samples = 3<br/>value = [3, 2]<br/>class = 0>, fillcolor="#f6d5bd"] ;
203 -> 205 ;
206 [label=<gini = 0.0<br/>samples = 1<br/>value = [0, 2]<br/>class = 1>, fillcolor="#399de5"] ;
205 -> 206 ;
207 [label=<gini = 0.0<br/>samples = 2<br/>value = [3, 0]<br/>class = 0>, fillcolor="#e58139"] ;
205 -> 207 ;
208 [label=<TotalCharges &le; -0.84<br/>gini = 0.5<br/>samples = 2<br/>value = [1, 1]<br/>class = 0>, fillcolor="#ffffff"] ;
202 -> 208 ;
209 [label=<gini = 0.0<br/>samples = 1<br/>value = [1, 0]<br/>class = 0>, fillcolor="#e58139"] ;
208 -> 209 ;
210 [label=<gini = 0.0<br/>samples = 1<br/>value = [0, 1]<br/>class = 1>, fillcolor="#399de5"] ;
208 -> 210 ;
211 [label=<gini = 0.0<br/>samples = 1<br/>value = [1, 0]<br/>class = 0>, fillcolor="#e58139"] ;
201 -> 211 ;
212 [label=<gini = 0.0<br/>samples = 3<br/>value = [0, 4]<br/>class = 1>, fillcolor="#399de5"] ;
200 -> 212 ;
213 [label=<TotalCharges &le; -0.778<br/>gini = 0.105<br/>samples = 25<br/>value = [34, 2]<br/>class = 0>, fillcolor="#e78845"] ;
191 -> 213 ;
214 [label=<Partner &le; 0.5<br/>gini = 0.5<br/>samples = 2<br/>value = [1, 1]<br/>class = 0>, fillcolor="#ffffff"] ;
213 -> 214 ;
215 [label=<gini = 0.0<br/>samples = 1<br/>value = [0, 1]<br/>class = 1>, fillcolor="#399de5"] ;
214 -> 215 ;
216 [label=<gini = 0.0<br/>samples = 1<br/>value = [1, 0]<br/>class = 0>, fillcolor="#e58139"] ;
214 -> 216 ;
217 [label=<PaymentMethod &le; 0.5<br/>gini = 0.057<br/>samples = 23<br/>value = [33, 1]<br/>class = 0>, fillcolor="#e6853f"] ;
213 -> 217 ;
218 [label=<MonthlyCharges &le; -0.568<br/>gini = 0.278<br/>samples = 4<br/>value = [5, 1]<br/>class = 0>, fillcolor="#ea9a61"] ;
217 -> 218 ;
219 [label=<gini = 0.0<br/>samples = 2<br/>value = [4, 0]<br/>class = 0>, fillcolor="#e58139"] ;
218 -> 219 ;
220 [label=<tenure &le; -0.058<br/>gini = 0.5<br/>samples = 2<br/>value = [1, 1]<br/>class = 0>, fillcolor="#ffffff"] ;
218 -> 220 ;
221 [label=<gini = 0.0<br/>samples = 1<br/>value = [0, 1]<br/>class = 1>, fillcolor="#399de5"] ;
220 -> 221 ;
222 [label=<gini = 0.0<br/>samples = 1<br/>value = [1, 0]<br/>class = 0>, fillcolor="#e58139"] ;
220 -> 222 ;
223 [label=<gini = 0.0<br/>samples = 19<br/>value = [28, 0]<br/>class = 0>, fillcolor="#e58139"] ;
217 -> 223 ;
224 [label=<StreamingTV &le; 1.0<br/>gini = 0.067<br/>samples = 16<br/>value = [28, 1]<br/>class = 0>, fillcolor="#e68640"] ;
190 -> 224 ;
225 [label=<gini = 0.0<br/>samples = 13<br/>value = [23, 0]<br/>class = 0>, fillcolor="#e58139"] ;
224 -> 225 ;
226 [label=<TotalCharges &le; -0.769<br/>gini = 0.278<br/>samples = 3<br/>value = [5, 1]<br/>class = 0>, fillcolor="#ea9a61"] ;
224 -> 226 ;
227 [label=<tenure &le; -1.015<br/>gini = 0.444<br/>samples = 2<br/>value = [2, 1]<br/>class = 0>, fillcolor="#f2c09c"] ;
226 -> 227 ;
228 [label=<gini = 0.0<br/>samples = 1<br/>value = [2, 0]<br/>class = 0>, fillcolor="#e58139"] ;
227 -> 228 ;
229 [label=<gini = 0.0<br/>samples = 1<br/>value = [0, 1]<br/>class = 1>, fillcolor="#399de5"] ;
227 -> 229 ;
230 [label=<gini = 0.0<br/>samples = 1<br/>value = [3, 0]<br/>class = 0>, fillcolor="#e58139"] ;
226 -> 230 ;
231 [label=<TotalCharges &le; -0.445<br/>gini = 0.342<br/>samples = 82<br/>value = [100, 28]<br/>class = 0>, fillcolor="#eca470"] ;
189 -> 231 ;
232 [label=<DeviceProtection &le; 1.0<br/>gini = 0.401<br/>samples = 63<br/>value = [73.0, 28.0]<br/>class = 0>, fillcolor="#efb185"] ;
231 -> 232 ;
233 [label=<Dependents &le; 0.5<br/>gini = 0.349<br/>samples = 43<br/>value = [55, 16]<br/>class = 0>, fillcolor="#eda673"] ;
232 -> 233 ;
234 [label=<SeniorCitizen &le; 0.5<br/>gini = 0.408<br/>samples = 33<br/>value = [40, 16]<br/>class = 0>, fillcolor="#efb388"] ;
233 -> 234 ;
235 [label=<PaperlessBilling &le; 0.5<br/>gini = 0.278<br/>samples = 26<br/>value = [35, 7]<br/>class = 0>, fillcolor="#ea9a61"] ;
234 -> 235 ;
236 [label=<TotalCharges &le; -0.695<br/>gini = 0.117<br/>samples = 10<br/>value = [15, 1]<br/>class = 0>, fillcolor="#e78946"] ;
235 -> 236 ;
237 [label=<gini = 0.0<br/>samples = 7<br/>value = [13, 0]<br/>class = 0>, fillcolor="#e58139"] ;
236 -> 237 ;
238 [label=<PaymentMethod &le; 1.5<br/>gini = 0.444<br/>samples = 3<br/>value = [2, 1]<br/>class = 0>, fillcolor="#f2c09c"] ;
236 -> 238 ;
239 [label=<TotalCharges &le; -0.556<br/>gini = 0.5<br/>samples = 2<br/>value = [1, 1]<br/>class = 0>, fillcolor="#ffffff"] ;
238 -> 239 ;
240 [label=<gini = 0.0<br/>samples = 1<br/>value = [0, 1]<br/>class = 1>, fillcolor="#399de5"] ;
239 -> 240 ;
241 [label=<gini = 0.0<br/>samples = 1<br/>value = [1, 0]<br/>class = 0>, fillcolor="#e58139"] ;
239 -> 241 ;
242 [label=<gini = 0.0<br/>samples = 1<br/>value = [1, 0]<br/>class = 0>, fillcolor="#e58139"] ;
238 -> 242 ;
243 [label=<StreamingMovies &le; 1.0<br/>gini = 0.355<br/>samples = 16<br/>value = [20, 6]<br/>class = 0>, fillcolor="#eda774"] ;
235 -> 243 ;
244 [label=<PhoneService &le; 0.5<br/>gini = 0.287<br/>samples = 13<br/>value = [19, 4]<br/>class = 0>, fillcolor="#ea9c63"] ;
243 -> 244 ;
245 [label=<MonthlyCharges &le; -1.159<br/>gini = 0.188<br/>samples = 10<br/>value = [17, 2]<br/>class = 0>, fillcolor="#e89050"] ;
244 -> 245 ;
246 [label=<gini = 0.0<br/>samples = 5<br/>value = [9, 0]<br/>class = 0>, fillcolor="#e58139"] ;
245 -> 246 ;
247 [label=<TotalCharges &le; -0.647<br/>gini = 0.32<br/>samples = 5<br/>value = [8, 2]<br/>class = 0>, fillcolor="#eca06a"] ;
245 -> 247 ;
248 [label=<gini = 0.0<br/>samples = 3<br/>value = [8, 0]<br/>class = 0>, fillcolor="#e58139"] ;
247 -> 248 ;
249 [label=<gini = 0.0<br/>samples = 2<br/>value = [0, 2]<br/>class = 1>, fillcolor="#399de5"] ;
247 -> 249 ;
250 [label=<MonthlyCharges &le; -0.258<br/>gini = 0.5<br/>samples = 3<br/>value = [2, 2]<br/>class = 0>, fillcolor="#ffffff"] ;
244 -> 250 ;
251 [label=<gini = 0.0<br/>samples = 2<br/>value = [2, 0]<br/>class = 0>, fillcolor="#e58139"] ;
250 -> 251 ;
252 [label=<gini = 0.0<br/>samples = 1<br/>value = [0, 2]<br/>class = 1>, fillcolor="#399de5"] ;
250 -> 252 ;
253 [label=<TotalCharges &le; -0.724<br/>gini = 0.444<br/>samples = 3<br/>value = [1, 2]<br/>class = 1>, fillcolor="#9ccef2"] ;
243 -> 253 ;
254 [label=<gini = 0.0<br/>samples = 2<br/>value = [0, 2]<br/>class = 1>, fillcolor="#399de5"] ;
253 -> 254 ;
255 [label=<gini = 0.0<br/>samples = 1<br/>value = [1, 0]<br/>class = 0>, fillcolor="#e58139"] ;
253 -> 255 ;
256 [label=<TotalCharges &le; -0.709<br/>gini = 0.459<br/>samples = 7<br/>value = [5, 9]<br/>class = 1>, fillcolor="#a7d3f3"] ;
234 -> 256 ;
257 [label=<StreamingMovies &le; 1.0<br/>gini = 0.48<br/>samples = 3<br/>value = [3, 2]<br/>class = 0>, fillcolor="#f6d5bd"] ;
256 -> 257 ;
258 [label=<gini = 0.0<br/>samples = 1<br/>value = [1, 0]<br/>class = 0>, fillcolor="#e58139"] ;
257 -> 258 ;
259 [label=<tenure &le; -0.832<br/>gini = 0.5<br/>samples = 2<br/>value = [2, 2]<br/>class = 0>, fillcolor="#ffffff"] ;
257 -> 259 ;
260 [label=<gini = 0.0<br/>samples = 1<br/>value = [0, 2]<br/>class = 1>, fillcolor="#399de5"] ;
259 -> 260 ;
261 [label=<gini = 0.0<br/>samples = 1<br/>value = [2, 0]<br/>class = 0>, fillcolor="#e58139"] ;
259 -> 261 ;
262 [label=<tenure &le; -0.526<br/>gini = 0.346<br/>samples = 4<br/>value = [2, 7]<br/>class = 1>, fillcolor="#72b9ec"] ;
256 -> 262 ;
263 [label=<gini = 0.0<br/>samples = 2<br/>value = [0, 5]<br/>class = 1>, fillcolor="#399de5"] ;
262 -> 263 ;
264 [label=<MonthlyCharges &le; -0.971<br/>gini = 0.5<br/>samples = 2<br/>value = [2, 2]<br/>class = 0>, fillcolor="#ffffff"] ;
262 -> 264 ;
265 [label=<gini = 0.0<br/>samples = 1<br/>value = [2, 0]<br/>class = 0>, fillcolor="#e58139"] ;
264 -> 265 ;
266 [label=<gini = 0.0<br/>samples = 1<br/>value = [0, 2]<br/>class = 1>, fillcolor="#399de5"] ;
264 -> 266 ;
267 [label=<gini = 0.0<br/>samples = 10<br/>value = [15, 0]<br/>class = 0>, fillcolor="#e58139"] ;
233 -> 267 ;
268 [label=<StreamingTV &le; 1.0<br/>gini = 0.48<br/>samples = 20<br/>value = [18, 12]<br/>class = 0>, fillcolor="#f6d5bd"] ;
232 -> 268 ;
269 [label=<MonthlyCharges &le; -0.834<br/>gini = 0.32<br/>samples = 13<br/>value = [16, 4]<br/>class = 0>, fillcolor="#eca06a"] ;
268 -> 269 ;
270 [label=<gini = 0.0<br/>samples = 10<br/>value = [15, 0]<br/>class = 0>, fillcolor="#e58139"] ;
269 -> 270 ;
271 [label=<gender &le; 0.5<br/>gini = 0.32<br/>samples = 3<br/>value = [1, 4]<br/>class = 1>, fillcolor="#6ab6ec"] ;
269 -> 271 ;
272 [label=<gini = 0.0<br/>samples = 1<br/>value = [1, 0]<br/>class = 0>, fillcolor="#e58139"] ;
271 -> 272 ;
273 [label=<gini = 0.0<br/>samples = 2<br/>value = [0, 4]<br/>class = 1>, fillcolor="#399de5"] ;
271 -> 273 ;
274 [label=<Partner &le; 0.5<br/>gini = 0.32<br/>samples = 7<br/>value = [2, 8]<br/>class = 1>, fillcolor="#6ab6ec"] ;
268 -> 274 ;
275 [label=<TechSupport &le; 1.0<br/>gini = 0.375<br/>samples = 5<br/>value = [2, 6]<br/>class = 1>, fillcolor="#7bbeee"] ;
274 -> 275 ;
276 [label=<tenure &le; -0.934<br/>gini = 0.245<br/>samples = 4<br/>value = [1, 6]<br/>class = 1>, fillcolor="#5aade9"] ;
275 -> 276 ;
277 [label=<gini = 0.0<br/>samples = 1<br/>value = [0, 3]<br/>class = 1>, fillcolor="#399de5"] ;
276 -> 277 ;
278 [label=<TotalCharges &le; -0.605<br/>gini = 0.375<br/>samples = 3<br/>value = [1, 3]<br/>class = 1>, fillcolor="#7bbeee"] ;
276 -> 278 ;
279 [label=<gini = 0.0<br/>samples = 1<br/>value = [1, 0]<br/>class = 0>, fillcolor="#e58139"] ;
278 -> 279 ;
280 [label=<gini = 0.0<br/>samples = 2<br/>value = [0, 3]<br/>class = 1>, fillcolor="#399de5"] ;
278 -> 280 ;
281 [label=<gini = 0.0<br/>samples = 1<br/>value = [1, 0]<br/>class = 0>, fillcolor="#e58139"] ;
275 -> 281 ;
282 [label=<gini = 0.0<br/>samples = 2<br/>value = [0, 2]<br/>class = 1>, fillcolor="#399de5"] ;
274 -> 282 ;
283 [label=<gini = 0.0<br/>samples = 19<br/>value = [27, 0]<br/>class = 0>, fillcolor="#e58139"] ;
231 -> 283 ;
284 [label=<PaymentMethod &le; 2.5<br/>gini = 0.491<br/>samples = 18<br/>value = [17, 13]<br/>class = 0>, fillcolor="#f9e1d0"] ;
188 -> 284 ;
285 [label=<TotalCharges &le; 0.106<br/>gini = 0.497<br/>samples = 17<br/>value = [15, 13]<br/>class = 0>, fillcolor="#fceee5"] ;
284 -> 285 ;
286 [label=<MultipleLines &le; 1.5<br/>gini = 0.32<br/>samples = 9<br/>value = [3, 12]<br/>class = 1>, fillcolor="#6ab6ec"] ;
285 -> 286 ;
287 [label=<MultipleLines &le; 0.5<br/>gini = 0.26<br/>samples = 7<br/>value = [2, 11]<br/>class = 1>, fillcolor="#5dafea"] ;
286 -> 287 ;
288 [label=<MonthlyCharges &le; -0.474<br/>gini = 0.375<br/>samples = 2<br/>value = [1, 3]<br/>class = 1>, fillcolor="#7bbeee"] ;
287 -> 288 ;
289 [label=<gini = 0.0<br/>samples = 1<br/>value = [1, 0]<br/>class = 0>, fillcolor="#e58139"] ;
288 -> 289 ;
290 [label=<gini = 0.0<br/>samples = 1<br/>value = [0, 3]<br/>class = 1>, fillcolor="#399de5"] ;
288 -> 290 ;
291 [label=<TotalCharges &le; -0.1<br/>gini = 0.198<br/>samples = 5<br/>value = [1, 8]<br/>class = 1>, fillcolor="#52a9e8"] ;
287 -> 291 ;
292 [label=<tenure &le; 0.288<br/>gini = 0.444<br/>samples = 2<br/>value = [1, 2]<br/>class = 1>, fillcolor="#9ccef2"] ;
291 -> 292 ;
293 [label=<gini = 0.0<br/>samples = 1<br/>value = [0, 2]<br/>class = 1>, fillcolor="#399de5"] ;
292 -> 293 ;
294 [label=<gini = 0.0<br/>samples = 1<br/>value = [1, 0]<br/>class = 0>, fillcolor="#e58139"] ;
292 -> 294 ;
295 [label=<gini = 0.0<br/>samples = 3<br/>value = [0, 6]<br/>class = 1>, fillcolor="#399de5"] ;
291 -> 295 ;
296 [label=<PaperlessBilling &le; 0.5<br/>gini = 0.5<br/>samples = 2<br/>value = [1, 1]<br/>class = 0>, fillcolor="#ffffff"] ;
286 -> 296 ;
297 [label=<gini = 0.0<br/>samples = 1<br/>value = [1, 0]<br/>class = 0>, fillcolor="#e58139"] ;
296 -> 297 ;
298 [label=<gini = 0.0<br/>samples = 1<br/>value = [0, 1]<br/>class = 1>, fillcolor="#399de5"] ;
296 -> 298 ;
299 [label=<gender &le; 0.5<br/>gini = 0.142<br/>samples = 8<br/>value = [12, 1]<br/>class = 0>, fillcolor="#e78c49"] ;
285 -> 299 ;
300 [label=<gini = 0.0<br/>samples = 3<br/>value = [6, 0]<br/>class = 0>, fillcolor="#e58139"] ;
299 -> 300 ;
301 [label=<TotalCharges &le; 0.148<br/>gini = 0.245<br/>samples = 5<br/>value = [6, 1]<br/>class = 0>, fillcolor="#e9965a"] ;
299 -> 301 ;
302 [label=<StreamingTV &le; 1.0<br/>gini = 0.5<br/>samples = 2<br/>value = [1, 1]<br/>class = 0>, fillcolor="#ffffff"] ;
301 -> 302 ;
303 [label=<gini = 0.0<br/>samples = 1<br/>value = [1, 0]<br/>class = 0>, fillcolor="#e58139"] ;
302 -> 303 ;
304 [label=<gini = 0.0<br/>samples = 1<br/>value = [0, 1]<br/>class = 1>, fillcolor="#399de5"] ;
302 -> 304 ;
305 [label=<gini = 0.0<br/>samples = 3<br/>value = [5, 0]<br/>class = 0>, fillcolor="#e58139"] ;
301 -> 305 ;
306 [label=<gini = 0.0<br/>samples = 1<br/>value = [2, 0]<br/>class = 0>, fillcolor="#e58139"] ;
284 -> 306 ;
307 [label=<InternetService &le; 0.5<br/>gini = 0.129<br/>samples = 43<br/>value = [67, 5]<br/>class = 0>, fillcolor="#e78a48"] ;
187 -> 307 ;
308 [label=<TotalCharges &le; -0.542<br/>gini = 0.146<br/>samples = 38<br/>value = [58, 5]<br/>class = 0>, fillcolor="#e78c4a"] ;
307 -> 308 ;
309 [label=<TotalCharges &le; -0.595<br/>gini = 0.26<br/>samples = 14<br/>value = [22, 4]<br/>class = 0>, fillcolor="#ea985d"] ;
308 -> 309 ;
310 [label=<PaymentMethod &le; 2.5<br/>gini = 0.153<br/>samples = 13<br/>value = [22, 2]<br/>class = 0>, fillcolor="#e78c4b"] ;
309 -> 310 ;
311 [label=<Dependents &le; 0.5<br/>gini = 0.091<br/>samples = 10<br/>value = [20, 1]<br/>class = 0>, fillcolor="#e68743"] ;
310 -> 311 ;
312 [label=<gini = 0.0<br/>samples = 6<br/>value = [14, 0]<br/>class = 0>, fillcolor="#e58139"] ;
311 -> 312 ;
313 [label=<MonthlyCharges &le; -0.024<br/>gini = 0.245<br/>samples = 4<br/>value = [6, 1]<br/>class = 0>, fillcolor="#e9965a"] ;
311 -> 313 ;
314 [label=<gini = 0.0<br/>samples = 2<br/>value = [5, 0]<br/>class = 0>, fillcolor="#e58139"] ;
313 -> 314 ;
315 [label=<TotalCharges &le; -0.718<br/>gini = 0.5<br/>samples = 2<br/>value = [1, 1]<br/>class = 0>, fillcolor="#ffffff"] ;
313 -> 315 ;
316 [label=<gini = 0.0<br/>samples = 1<br/>value = [1, 0]<br/>class = 0>, fillcolor="#e58139"] ;
315 -> 316 ;
317 [label=<gini = 0.0<br/>samples = 1<br/>value = [0, 1]<br/>class = 1>, fillcolor="#399de5"] ;
315 -> 317 ;
318 [label=<MonthlyCharges &le; 0.013<br/>gini = 0.444<br/>samples = 3<br/>value = [2, 1]<br/>class = 0>, fillcolor="#f2c09c"] ;
310 -> 318 ;
319 [label=<gini = 0.0<br/>samples = 2<br/>value = [2, 0]<br/>class = 0>, fillcolor="#e58139"] ;
318 -> 319 ;
320 [label=<gini = 0.0<br/>samples = 1<br/>value = [0, 1]<br/>class = 1>, fillcolor="#399de5"] ;
318 -> 320 ;
321 [label=<gini = 0.0<br/>samples = 1<br/>value = [0, 2]<br/>class = 1>, fillcolor="#399de5"] ;
309 -> 321 ;
322 [label=<OnlineBackup &le; 1.0<br/>gini = 0.053<br/>samples = 24<br/>value = [36, 1]<br/>class = 0>, fillcolor="#e6843e"] ;
308 -> 322 ;
323 [label=<tenure &le; 0.125<br/>gini = 0.111<br/>samples = 13<br/>value = [16, 1]<br/>class = 0>, fillcolor="#e78945"] ;
322 -> 323 ;
324 [label=<gini = 0.0<br/>samples = 9<br/>value = [12, 0]<br/>class = 0>, fillcolor="#e58139"] ;
323 -> 324 ;
325 [label=<MonthlyCharges &le; -0.003<br/>gini = 0.32<br/>samples = 4<br/>value = [4, 1]<br/>class = 0>, fillcolor="#eca06a"] ;
323 -> 325 ;
326 [label=<gini = 0.0<br/>samples = 3<br/>value = [4, 0]<br/>class = 0>, fillcolor="#e58139"] ;
325 -> 326 ;
327 [label=<gini = 0.0<br/>samples = 1<br/>value = [0, 1]<br/>class = 1>, fillcolor="#399de5"] ;
325 -> 327 ;
328 [label=<gini = 0.0<br/>samples = 11<br/>value = [20, 0]<br/>class = 0>, fillcolor="#e58139"] ;
322 -> 328 ;
329 [label=<gini = 0.0<br/>samples = 5<br/>value = [9, 0]<br/>class = 0>, fillcolor="#e58139"] ;
307 -> 329 ;
330 [label=<TotalCharges &le; -0.998<br/>gini = 0.309<br/>samples = 372<br/>value = [470, 111]<br/>class = 0>, fillcolor="#eb9f68"] ;
2 -> 330 ;
331 [label=<PaymentMethod &le; 1.5<br/>gini = 0.46<br/>samples = 48<br/>value = [50.0, 28.0]<br/>class = 0>, fillcolor="#f4c8a8"] ;
330 -> 331 ;
332 [label=<Dependents &le; 0.5<br/>gini = 0.142<br/>samples = 9<br/>value = [12, 1]<br/>class = 0>, fillcolor="#e78c49"] ;
331 -> 332 ;
333 [label=<gini = 0.0<br/>samples = 7<br/>value = [11, 0]<br/>class = 0>, fillcolor="#e58139"] ;
332 -> 333 ;
334 [label=<MonthlyCharges &le; -1.487<br/>gini = 0.5<br/>samples = 2<br/>value = [1, 1]<br/>class = 0>, fillcolor="#ffffff"] ;
332 -> 334 ;
335 [label=<gini = 0.0<br/>samples = 1<br/>value = [0, 1]<br/>class = 1>, fillcolor="#399de5"] ;
334 -> 335 ;
336 [label=<gini = 0.0<br/>samples = 1<br/>value = [1, 0]<br/>class = 0>, fillcolor="#e58139"] ;
334 -> 336 ;
337 [label=<Partner &le; 0.5<br/>gini = 0.486<br/>samples = 39<br/>value = [38, 27]<br/>class = 0>, fillcolor="#f7dbc6"] ;
331 -> 337 ;
338 [label=<TotalCharges &le; -0.998<br/>gini = 0.489<br/>samples = 33<br/>value = [31, 23]<br/>class = 0>, fillcolor="#f8decc"] ;
337 -> 338 ;
339 [label=<TotalCharges &le; -0.999<br/>gini = 0.427<br/>samples = 27<br/>value = [29, 13]<br/>class = 0>, fillcolor="#f1b992"] ;
338 -> 339 ;
340 [label=<gini = 0.0<br/>samples = 6<br/>value = [9, 0]<br/>class = 0>, fillcolor="#e58139"] ;
339 -> 340 ;
341 [label=<PaperlessBilling &le; 0.5<br/>gini = 0.478<br/>samples = 21<br/>value = [20, 13]<br/>class = 0>, fillcolor="#f6d3ba"] ;
339 -> 341 ;
342 [label=<MonthlyCharges &le; -1.497<br/>gini = 0.423<br/>samples = 14<br/>value = [16, 7]<br/>class = 0>, fillcolor="#f0b890"] ;
341 -> 342 ;
343 [label=<gender &le; 0.5<br/>gini = 0.48<br/>samples = 8<br/>value = [4, 6]<br/>class = 1>, fillcolor="#bddef6"] ;
342 -> 343 ;
344 [label=<TotalCharges &le; -0.999<br/>gini = 0.48<br/>samples = 4<br/>value = [3, 2]<br/>class = 0>, fillcolor="#f6d5bd"] ;
343 -> 344 ;
345 [label=<gini = 0.0<br/>samples = 1<br/>value = [0, 1]<br/>class = 1>, fillcolor="#399de5"] ;
344 -> 345 ;
346 [label=<TotalCharges &le; -0.999<br/>gini = 0.375<br/>samples = 3<br/>value = [3, 1]<br/>class = 0>, fillcolor="#eeab7b"] ;
344 -> 346 ;
347 [label=<gini = 0.0<br/>samples = 1<br/>value = [2, 0]<br/>class = 0>, fillcolor="#e58139"] ;
346 -> 347 ;
348 [label=<gini = 0.5<br/>samples = 2<br/>value = [1, 1]<br/>class = 0>, fillcolor="#ffffff"] ;
346 -> 348 ;
349 [label=<Dependents &le; 0.5<br/>gini = 0.32<br/>samples = 4<br/>value = [1, 4]<br/>class = 1>, fillcolor="#6ab6ec"] ;
343 -> 349 ;
350 [label=<gini = 0.0<br/>samples = 2<br/>value = [0, 3]<br/>class = 1>, fillcolor="#399de5"] ;
349 -> 350 ;
351 [label=<MonthlyCharges &le; -1.509<br/>gini = 0.5<br/>samples = 2<br/>value = [1, 1]<br/>class = 0>, fillcolor="#ffffff"] ;
349 -> 351 ;
352 [label=<gini = 0.0<br/>samples = 1<br/>value = [0, 1]<br/>class = 1>, fillcolor="#399de5"] ;
351 -> 352 ;
353 [label=<gini = 0.0<br/>samples = 1<br/>value = [1, 0]<br/>class = 0>, fillcolor="#e58139"] ;
351 -> 353 ;
354 [label=<TotalCharges &le; -0.999<br/>gini = 0.142<br/>samples = 6<br/>value = [12, 1]<br/>class = 0>, fillcolor="#e78c49"] ;
342 -> 354 ;
355 [label=<gini = 0.0<br/>samples = 3<br/>value = [7, 0]<br/>class = 0>, fillcolor="#e58139"] ;
354 -> 355 ;
356 [label=<TotalCharges &le; -0.999<br/>gini = 0.278<br/>samples = 3<br/>value = [5, 1]<br/>class = 0>, fillcolor="#ea9a61"] ;
354 -> 356 ;
357 [label=<gini = 0.5<br/>samples = 2<br/>value = [1, 1]<br/>class = 0>, fillcolor="#ffffff"] ;
356 -> 357 ;
358 [label=<gini = 0.0<br/>samples = 1<br/>value = [4, 0]<br/>class = 0>, fillcolor="#e58139"] ;
356 -> 358 ;
359 [label=<gender &le; 0.5<br/>gini = 0.48<br/>samples = 7<br/>value = [4, 6]<br/>class = 1>, fillcolor="#bddef6"] ;
341 -> 359 ;
360 [label=<TotalCharges &le; -0.999<br/>gini = 0.32<br/>samples = 3<br/>value = [1, 4]<br/>class = 1>, fillcolor="#6ab6ec"] ;
359 -> 360 ;
361 [label=<gini = 0.0<br/>samples = 1<br/>value = [1, 0]<br/>class = 0>, fillcolor="#e58139"] ;
360 -> 361 ;
362 [label=<gini = 0.0<br/>samples = 2<br/>value = [0, 4]<br/>class = 1>, fillcolor="#399de5"] ;
360 -> 362 ;
363 [label=<MonthlyCharges &le; -1.5<br/>gini = 0.48<br/>samples = 4<br/>value = [3, 2]<br/>class = 0>, fillcolor="#f6d5bd"] ;
359 -> 363 ;
364 [label=<Dependents &le; 0.5<br/>gini = 0.375<br/>samples = 3<br/>value = [3, 1]<br/>class = 0>, fillcolor="#eeab7b"] ;
363 -> 364 ;
365 [label=<gini = 0.0<br/>samples = 1<br/>value = [2, 0]<br/>class = 0>, fillcolor="#e58139"] ;
364 -> 365 ;
366 [label=<TotalCharges &le; -0.999<br/>gini = 0.5<br/>samples = 2<br/>value = [1, 1]<br/>class = 0>, fillcolor="#ffffff"] ;
364 -> 366 ;
367 [label=<gini = 0.0<br/>samples = 1<br/>value = [1, 0]<br/>class = 0>, fillcolor="#e58139"] ;
366 -> 367 ;
368 [label=<gini = 0.0<br/>samples = 1<br/>value = [0, 1]<br/>class = 1>, fillcolor="#399de5"] ;
366 -> 368 ;
369 [label=<gini = 0.0<br/>samples = 1<br/>value = [0, 1]<br/>class = 1>, fillcolor="#399de5"] ;
363 -> 369 ;
370 [label=<TotalCharges &le; -0.998<br/>gini = 0.278<br/>samples = 6<br/>value = [2, 10]<br/>class = 1>, fillcolor="#61b1ea"] ;
338 -> 370 ;
371 [label=<gini = 0.0<br/>samples = 2<br/>value = [0, 2]<br/>class = 1>, fillcolor="#399de5"] ;
370 -> 371 ;
372 [label=<PaperlessBilling &le; 0.5<br/>gini = 0.32<br/>samples = 4<br/>value = [2, 8]<br/>class = 1>, fillcolor="#6ab6ec"] ;
370 -> 372 ;
373 [label=<gini = 0.444<br/>samples = 2<br/>value = [2, 1]<br/>class = 0>, fillcolor="#f2c09c"] ;
372 -> 373 ;
374 [label=<gini = 0.0<br/>samples = 2<br/>value = [0, 7]<br/>class = 1>, fillcolor="#399de5"] ;
372 -> 374 ;
375 [label=<PaperlessBilling &le; 0.5<br/>gini = 0.463<br/>samples = 6<br/>value = [7, 4]<br/>class = 0>, fillcolor="#f4c9aa"] ;
337 -> 375 ;
376 [label=<MonthlyCharges &le; -1.503<br/>gini = 0.346<br/>samples = 5<br/>value = [7, 2]<br/>class = 0>, fillcolor="#eca572"] ;
375 -> 376 ;
377 [label=<gini = 0.0<br/>samples = 1<br/>value = [0, 1]<br/>class = 1>, fillcolor="#399de5"] ;
376 -> 377 ;
378 [label=<gender &le; 0.5<br/>gini = 0.219<br/>samples = 4<br/>value = [7, 1]<br/>class = 0>, fillcolor="#e99355"] ;
376 -> 378 ;
379 [label=<gini = 0.0<br/>samples = 1<br/>value = [3, 0]<br/>class = 0>, fillcolor="#e58139"] ;
378 -> 379 ;
380 [label=<PaymentMethod &le; 2.5<br/>gini = 0.32<br/>samples = 3<br/>value = [4, 1]<br/>class = 0>, fillcolor="#eca06a"] ;
378 -> 380 ;
381 [label=<gini = 0.0<br/>samples = 1<br/>value = [3, 0]<br/>class = 0>, fillcolor="#e58139"] ;
380 -> 381 ;
382 [label=<TotalCharges &le; -0.999<br/>gini = 0.5<br/>samples = 2<br/>value = [1, 1]<br/>class = 0>, fillcolor="#ffffff"] ;
380 -> 382 ;
383 [label=<gini = 0.0<br/>samples = 1<br/>value = [1, 0]<br/>class = 0>, fillcolor="#e58139"] ;
382 -> 383 ;
384 [label=<gini = 0.0<br/>samples = 1<br/>value = [0, 1]<br/>class = 1>, fillcolor="#399de5"] ;
382 -> 384 ;
385 [label=<gini = 0.0<br/>samples = 1<br/>value = [0, 2]<br/>class = 1>, fillcolor="#399de5"] ;
375 -> 385 ;
386 [label=<MonthlyCharges &le; -1.176<br/>gini = 0.276<br/>samples = 324<br/>value = [420, 83]<br/>class = 0>, fillcolor="#ea9a60"] ;
330 -> 386 ;
387 [label=<TotalCharges &le; -0.825<br/>gini = 0.189<br/>samples = 188<br/>value = [263, 31]<br/>class = 0>, fillcolor="#e89050"] ;
386 -> 387 ;
388 [label=<tenure &le; -0.73<br/>gini = 0.216<br/>samples = 153<br/>value = [213, 30]<br/>class = 0>, fillcolor="#e99355"] ;
387 -> 388 ;
389 [label=<PaperlessBilling &le; 0.5<br/>gini = 0.183<br/>samples = 130<br/>value = [185, 21]<br/>class = 0>, fillcolor="#e88f4f"] ;
388 -> 389 ;
390 [label=<SeniorCitizen &le; 0.5<br/>gini = 0.225<br/>samples = 93<br/>value = [121, 18]<br/>class = 0>, fillcolor="#e99456"] ;
389 -> 390 ;
391 [label=<TotalCharges &le; -0.946<br/>gini = 0.22<br/>samples = 90<br/>value = [118, 17]<br/>class = 0>, fillcolor="#e99356"] ;
390 -> 391 ;
392 [label=<MonthlyCharges &le; -1.496<br/>gini = 0.295<br/>samples = 61<br/>value = [73, 16]<br/>class = 0>, fillcolor="#eb9d64"] ;
391 -> 392 ;
393 [label=<MonthlyCharges &le; -1.51<br/>gini = 0.1<br/>samples = 12<br/>value = [18, 1]<br/>class = 0>, fillcolor="#e68844"] ;
392 -> 393 ;
394 [label=<MonthlyCharges &le; -1.517<br/>gini = 0.165<br/>samples = 7<br/>value = [10, 1]<br/>class = 0>, fillcolor="#e88e4d"] ;
393 -> 394 ;
395 [label=<gini = 0.0<br/>samples = 5<br/>value = [7, 0]<br/>class = 0>, fillcolor="#e58139"] ;
394 -> 395 ;
396 [label=<tenure &le; -1.178<br/>gini = 0.375<br/>samples = 2<br/>value = [3, 1]<br/>class = 0>, fillcolor="#eeab7b"] ;
394 -> 396 ;
397 [label=<gini = 0.0<br/>samples = 1<br/>value = [3, 0]<br/>class = 0>, fillcolor="#e58139"] ;
396 -> 397 ;
398 [label=<gini = 0.0<br/>samples = 1<br/>value = [0, 1]<br/>class = 1>, fillcolor="#399de5"] ;
396 -> 398 ;
399 [label=<gini = 0.0<br/>samples = 5<br/>value = [8, 0]<br/>class = 0>, fillcolor="#e58139"] ;
393 -> 399 ;
400 [label=<MonthlyCharges &le; -1.492<br/>gini = 0.337<br/>samples = 49<br/>value = [55, 15]<br/>class = 0>, fillcolor="#eca36f"] ;
392 -> 400 ;
401 [label=<Partner &le; 0.5<br/>gini = 0.5<br/>samples = 5<br/>value = [4, 4]<br/>class = 0>, fillcolor="#ffffff"] ;
400 -> 401 ;
402 [label=<PaymentMethod &le; 2.0<br/>gini = 0.444<br/>samples = 4<br/>value = [2, 4]<br/>class = 1>, fillcolor="#9ccef2"] ;
401 -> 402 ;
403 [label=<gini = 0.0<br/>samples = 1<br/>value = [0, 1]<br/>class = 1>, fillcolor="#399de5"] ;
402 -> 403 ;
404 [label=<TotalCharges &le; -0.981<br/>gini = 0.48<br/>samples = 3<br/>value = [2, 3]<br/>class = 1>, fillcolor="#bddef6"] ;
402 -> 404 ;
405 [label=<gini = 0.0<br/>samples = 1<br/>value = [2, 0]<br/>class = 0>, fillcolor="#e58139"] ;
404 -> 405 ;
406 [label=<gini = 0.0<br/>samples = 2<br/>value = [0, 3]<br/>class = 1>, fillcolor="#399de5"] ;
404 -> 406 ;
407 [label=<gini = 0.0<br/>samples = 1<br/>value = [2, 0]<br/>class = 0>, fillcolor="#e58139"] ;
401 -> 407 ;
408 [label=<gender &le; 0.5<br/>gini = 0.292<br/>samples = 44<br/>value = [51, 11]<br/>class = 0>, fillcolor="#eb9c64"] ;
400 -> 408 ;
409 [label=<PaymentMethod &le; 0.5<br/>gini = 0.404<br/>samples = 23<br/>value = [23, 9]<br/>class = 0>, fillcolor="#efb286"] ;
408 -> 409 ;
410 [label=<MonthlyCharges &le; -1.487<br/>gini = 0.5<br/>samples = 2<br/>value = [1, 1]<br/>class = 0>, fillcolor="#ffffff"] ;
409 -> 410 ;
411 [label=<gini = 0.0<br/>samples = 1<br/>value = [0, 1]<br/>class = 1>, fillcolor="#399de5"] ;
410 -> 411 ;
412 [label=<gini = 0.0<br/>samples = 1<br/>value = [1, 0]<br/>class = 0>, fillcolor="#e58139"] ;
410 -> 412 ;
413 [label=<Partner &le; 0.5<br/>gini = 0.391<br/>samples = 21<br/>value = [22, 8]<br/>class = 0>, fillcolor="#eeaf81"] ;
409 -> 413 ;
414 [label=<Dependents &le; 0.5<br/>gini = 0.34<br/>samples = 17<br/>value = [18, 5]<br/>class = 0>, fillcolor="#eca470"] ;
413 -> 414 ;
415 [label=<PaymentMethod &le; 2.0<br/>gini = 0.351<br/>samples = 16<br/>value = [17, 5]<br/>class = 0>, fillcolor="#eda673"] ;
414 -> 415 ;
416 [label=<gini = 0.0<br/>samples = 1<br/>value = [1, 0]<br/>class = 0>, fillcolor="#e58139"] ;
415 -> 416 ;
417 [label=<TotalCharges &le; -0.972<br/>gini = 0.363<br/>samples = 15<br/>value = [16, 5]<br/>class = 0>, fillcolor="#eda877"] ;
415 -> 417 ;
418 [label=<TotalCharges &le; -0.976<br/>gini = 0.473<br/>samples = 10<br/>value = [8, 5]<br/>class = 0>, fillcolor="#f5d0b5"] ;
417 -> 418 ;
419 [label=<TotalCharges &le; -0.998<br/>gini = 0.397<br/>samples = 9<br/>value = [8, 3]<br/>class = 0>, fillcolor="#efb083"] ;
418 -> 419 ;
420 [label=<gini = 0.0<br/>samples = 2<br/>value = [3, 0]<br/>class = 0>, fillcolor="#e58139"] ;
419 -> 420 ;
421 [label=<TotalCharges &le; -0.994<br/>gini = 0.469<br/>samples = 7<br/>value = [5, 3]<br/>class = 0>, fillcolor="#f5cdb0"] ;
419 -> 421 ;
422 [label=<TotalCharges &le; -0.998<br/>gini = 0.48<br/>samples = 4<br/>value = [2, 3]<br/>class = 1>, fillcolor="#bddef6"] ;
421 -> 422 ;
423 [label=<gini = 0.0<br/>samples = 1<br/>value = [0, 1]<br/>class = 1>, fillcolor="#399de5"] ;
422 -> 423 ;
424 [label=<TotalCharges &le; -0.998<br/>gini = 0.5<br/>samples = 3<br/>value = [2, 2]<br/>class = 0>, fillcolor="#ffffff"] ;
422 -> 424 ;
425 [label=<gini = 0.444<br/>samples = 2<br/>value = [2, 1]<br/>class = 0>, fillcolor="#f2c09c"] ;
424 -> 425 ;
426 [label=<gini = 0.0<br/>samples = 1<br/>value = [0, 1]<br/>class = 1>, fillcolor="#399de5"] ;
424 -> 426 ;
427 [label=<gini = 0.0<br/>samples = 3<br/>value = [3, 0]<br/>class = 0>, fillcolor="#e58139"] ;
421 -> 427 ;
428 [label=<gini = 0.0<br/>samples = 1<br/>value = [0, 2]<br/>class = 1>, fillcolor="#399de5"] ;
418 -> 428 ;
429 [label=<gini = 0.0<br/>samples = 5<br/>value = [8, 0]<br/>class = 0>, fillcolor="#e58139"] ;
417 -> 429 ;
430 [label=<gini = 0.0<br/>samples = 1<br/>value = [1, 0]<br/>class = 0>, fillcolor="#e58139"] ;
414 -> 430 ;
431 [label=<TotalCharges &le; -0.97<br/>gini = 0.49<br/>samples = 4<br/>value = [4, 3]<br/>class = 0>, fillcolor="#f8e0ce"] ;
413 -> 431 ;
432 [label=<MonthlyCharges &le; -1.466<br/>gini = 0.375<br/>samples = 3<br/>value = [1, 3]<br/>class = 1>, fillcolor="#7bbeee"] ;
431 -> 432 ;
433 [label=<gini = 0.0<br/>samples = 2<br/>value = [0, 3]<br/>class = 1>, fillcolor="#399de5"] ;
432 -> 433 ;
434 [label=<gini = 0.0<br/>samples = 1<br/>value = [1, 0]<br/>class = 0>, fillcolor="#e58139"] ;
432 -> 434 ;
435 [label=<gini = 0.0<br/>samples = 1<br/>value = [3, 0]<br/>class = 0>, fillcolor="#e58139"] ;
431 -> 435 ;
436 [label=<tenure &le; -1.26<br/>gini = 0.124<br/>samples = 21<br/>value = [28, 2]<br/>class = 0>, fillcolor="#e78a47"] ;
408 -> 436 ;
437 [label=<gini = 0.0<br/>samples = 8<br/>value = [13, 0]<br/>class = 0>, fillcolor="#e58139"] ;
436 -> 437 ;
438 [label=<TotalCharges &le; -0.993<br/>gini = 0.208<br/>samples = 13<br/>value = [15, 2]<br/>class = 0>, fillcolor="#e89253"] ;
436 -> 438 ;
439 [label=<TotalCharges &le; -0.993<br/>gini = 0.5<br/>samples = 2<br/>value = [1, 1]<br/>class = 0>, fillcolor="#ffffff"] ;
438 -> 439 ;
440 [label=<gini = 0.0<br/>samples = 1<br/>value = [1, 0]<br/>class = 0>, fillcolor="#e58139"] ;
439 -> 440 ;
441 [label=<gini = 0.0<br/>samples = 1<br/>value = [0, 1]<br/>class = 1>, fillcolor="#399de5"] ;
439 -> 441 ;
442 [label=<PaymentMethod &le; 2.0<br/>gini = 0.124<br/>samples = 11<br/>value = [14, 1]<br/>class = 0>, fillcolor="#e78a47"] ;
438 -> 442 ;
443 [label=<gini = 0.0<br/>samples = 2<br/>value = [2, 0]<br/>class = 0>, fillcolor="#e58139"] ;
442 -> 443 ;
444 [label=<TotalCharges &le; -0.959<br/>gini = 0.142<br/>samples = 9<br/>value = [12, 1]<br/>class = 0>, fillcolor="#e78c49"] ;
442 -> 444 ;
445 [label=<gini = 0.0<br/>samples = 8<br/>value = [12, 0]<br/>class = 0>, fillcolor="#e58139"] ;
444 -> 445 ;
446 [label=<gini = 0.0<br/>samples = 1<br/>value = [0, 1]<br/>class = 1>, fillcolor="#399de5"] ;
444 -> 446 ;
447 [label=<gender &le; 0.5<br/>gini = 0.043<br/>samples = 29<br/>value = [45, 1]<br/>class = 0>, fillcolor="#e6843d"] ;
391 -> 447 ;
448 [label=<gini = 0.0<br/>samples = 15<br/>value = [25, 0]<br/>class = 0>, fillcolor="#e58139"] ;
447 -> 448 ;
449 [label=<MonthlyCharges &le; -1.419<br/>gini = 0.091<br/>samples = 14<br/>value = [20, 1]<br/>class = 0>, fillcolor="#e68743"] ;
447 -> 449 ;
450 [label=<gini = 0.0<br/>samples = 12<br/>value = [19, 0]<br/>class = 0>, fillcolor="#e58139"] ;
449 -> 450 ;
451 [label=<tenure &le; -0.852<br/>gini = 0.5<br/>samples = 2<br/>value = [1, 1]<br/>class = 0>, fillcolor="#ffffff"] ;
449 -> 451 ;
452 [label=<gini = 0.0<br/>samples = 1<br/>value = [0, 1]<br/>class = 1>, fillcolor="#399de5"] ;
451 -> 452 ;
453 [label=<gini = 0.0<br/>samples = 1<br/>value = [1, 0]<br/>class = 0>, fillcolor="#e58139"] ;
451 -> 453 ;
454 [label=<MonthlyCharges &le; -1.503<br/>gini = 0.375<br/>samples = 3<br/>value = [3, 1]<br/>class = 0>, fillcolor="#eeab7b"] ;
390 -> 454 ;
455 [label=<gini = 0.0<br/>samples = 1<br/>value = [2, 0]<br/>class = 0>, fillcolor="#e58139"] ;
454 -> 455 ;
456 [label=<MonthlyCharges &le; -1.489<br/>gini = 0.5<br/>samples = 2<br/>value = [1, 1]<br/>class = 0>, fillcolor="#ffffff"] ;
454 -> 456 ;
457 [label=<gini = 0.0<br/>samples = 1<br/>value = [0, 1]<br/>class = 1>, fillcolor="#399de5"] ;
456 -> 457 ;
458 [label=<gini = 0.0<br/>samples = 1<br/>value = [1, 0]<br/>class = 0>, fillcolor="#e58139"] ;
456 -> 458 ;
459 [label=<MultipleLines &le; 1.5<br/>gini = 0.086<br/>samples = 37<br/>value = [64, 3]<br/>class = 0>, fillcolor="#e68742"] ;
389 -> 459 ;
460 [label=<tenure &le; -1.178<br/>gini = 0.035<br/>samples = 31<br/>value = [55, 1]<br/>class = 0>, fillcolor="#e5833d"] ;
459 -> 460 ;
461 [label=<tenure &le; -1.219<br/>gini = 0.067<br/>samples = 14<br/>value = [28, 1]<br/>class = 0>, fillcolor="#e68640"] ;
460 -> 461 ;
462 [label=<gini = 0.0<br/>samples = 7<br/>value = [16, 0]<br/>class = 0>, fillcolor="#e58139"] ;
461 -> 462 ;
463 [label=<TotalCharges &le; -0.984<br/>gini = 0.142<br/>samples = 7<br/>value = [12, 1]<br/>class = 0>, fillcolor="#e78c49"] ;
461 -> 463 ;
464 [label=<gini = 0.0<br/>samples = 1<br/>value = [0, 1]<br/>class = 1>, fillcolor="#399de5"] ;
463 -> 464 ;
465 [label=<gini = 0.0<br/>samples = 6<br/>value = [12, 0]<br/>class = 0>, fillcolor="#e58139"] ;
463 -> 465 ;
466 [label=<gini = 0.0<br/>samples = 17<br/>value = [27, 0]<br/>class = 0>, fillcolor="#e58139"] ;
460 -> 466 ;
467 [label=<Partner &le; 0.5<br/>gini = 0.298<br/>samples = 6<br/>value = [9, 2]<br/>class = 0>, fillcolor="#eb9d65"] ;
459 -> 467 ;
468 [label=<Dependents &le; 0.5<br/>gini = 0.245<br/>samples = 4<br/>value = [6, 1]<br/>class = 0>, fillcolor="#e9965a"] ;
467 -> 468 ;
469 [label=<MonthlyCharges &le; -1.338<br/>gini = 0.32<br/>samples = 3<br/>value = [4, 1]<br/>class = 0>, fillcolor="#eca06a"] ;
468 -> 469 ;
470 [label=<gini = 0.0<br/>samples = 1<br/>value = [0, 1]<br/>class = 1>, fillcolor="#399de5"] ;
469 -> 470 ;
471 [label=<gini = 0.0<br/>samples = 2<br/>value = [4, 0]<br/>class = 0>, fillcolor="#e58139"] ;
469 -> 471 ;
472 [label=<gini = 0.0<br/>samples = 1<br/>value = [2, 0]<br/>class = 0>, fillcolor="#e58139"] ;
468 -> 472 ;
473 [label=<MonthlyCharges &le; -1.32<br/>gini = 0.375<br/>samples = 2<br/>value = [3, 1]<br/>class = 0>, fillcolor="#eeab7b"] ;
467 -> 473 ;
474 [label=<gini = 0.0<br/>samples = 1<br/>value = [3, 0]<br/>class = 0>, fillcolor="#e58139"] ;
473 -> 474 ;
475 [label=<gini = 0.0<br/>samples = 1<br/>value = [0, 1]<br/>class = 1>, fillcolor="#399de5"] ;
473 -> 475 ;
476 [label=<TotalCharges &le; -0.873<br/>gini = 0.368<br/>samples = 23<br/>value = [28, 9]<br/>class = 0>, fillcolor="#edaa79"] ;
388 -> 476 ;
477 [label=<TotalCharges &le; -0.881<br/>gini = 0.5<br/>samples = 4<br/>value = [4, 4]<br/>class = 0>, fillcolor="#ffffff"] ;
476 -> 477 ;
478 [label=<gini = 0.0<br/>samples = 2<br/>value = [4, 0]<br/>class = 0>, fillcolor="#e58139"] ;
477 -> 478 ;
479 [label=<gini = 0.0<br/>samples = 2<br/>value = [0, 4]<br/>class = 1>, fillcolor="#399de5"] ;
477 -> 479 ;
480 [label=<TotalCharges &le; -0.828<br/>gini = 0.285<br/>samples = 19<br/>value = [24, 5]<br/>class = 0>, fillcolor="#ea9b62"] ;
476 -> 480 ;
481 [label=<PaperlessBilling &le; 0.5<br/>gini = 0.245<br/>samples = 18<br/>value = [24, 4]<br/>class = 0>, fillcolor="#e9965a"] ;
480 -> 481 ;
482 [label=<MonthlyCharges &le; -1.482<br/>gini = 0.153<br/>samples = 8<br/>value = [11, 1]<br/>class = 0>, fillcolor="#e78c4b"] ;
481 -> 482 ;
483 [label=<gini = 0.0<br/>samples = 5<br/>value = [6, 0]<br/>class = 0>, fillcolor="#e58139"] ;
482 -> 483 ;
484 [label=<gender &le; 0.5<br/>gini = 0.278<br/>samples = 3<br/>value = [5, 1]<br/>class = 0>, fillcolor="#ea9a61"] ;
482 -> 484 ;
485 [label=<gini = 0.0<br/>samples = 2<br/>value = [5, 0]<br/>class = 0>, fillcolor="#e58139"] ;
484 -> 485 ;
486 [label=<gini = 0.0<br/>samples = 1<br/>value = [0, 1]<br/>class = 1>, fillcolor="#399de5"] ;
484 -> 486 ;
487 [label=<tenure &le; -0.547<br/>gini = 0.305<br/>samples = 10<br/>value = [13, 3]<br/>class = 0>, fillcolor="#eb9e67"] ;
481 -> 487 ;
488 [label=<PaymentMethod &le; 1.5<br/>gini = 0.153<br/>samples = 8<br/>value = [11, 1]<br/>class = 0>, fillcolor="#e78c4b"] ;
487 -> 488 ;
489 [label=<Partner &le; 0.5<br/>gini = 0.444<br/>samples = 3<br/>value = [2, 1]<br/>class = 0>, fillcolor="#f2c09c"] ;
488 -> 489 ;
490 [label=<MonthlyCharges &le; -1.389<br/>gini = 0.5<br/>samples = 2<br/>value = [1, 1]<br/>class = 0>, fillcolor="#ffffff"] ;
489 -> 490 ;
491 [label=<gini = 0.0<br/>samples = 1<br/>value = [1, 0]<br/>class = 0>, fillcolor="#e58139"] ;
490 -> 491 ;
492 [label=<gini = 0.0<br/>samples = 1<br/>value = [0, 1]<br/>class = 1>, fillcolor="#399de5"] ;
490 -> 492 ;
493 [label=<gini = 0.0<br/>samples = 1<br/>value = [1, 0]<br/>class = 0>, fillcolor="#e58139"] ;
489 -> 493 ;
494 [label=<gini = 0.0<br/>samples = 5<br/>value = [9, 0]<br/>class = 0>, fillcolor="#e58139"] ;
488 -> 494 ;
495 [label=<MonthlyCharges &le; -1.517<br/>gini = 0.5<br/>samples = 2<br/>value = [2, 2]<br/>class = 0>, fillcolor="#ffffff"] ;
487 -> 495 ;
496 [label=<gini = 0.0<br/>samples = 1<br/>value = [2, 0]<br/>class = 0>, fillcolor="#e58139"] ;
495 -> 496 ;
497 [label=<gini = 0.0<br/>samples = 1<br/>value = [0, 2]<br/>class = 1>, fillcolor="#399de5"] ;
495 -> 497 ;
498 [label=<gini = 0.0<br/>samples = 1<br/>value = [0, 1]<br/>class = 1>, fillcolor="#399de5"] ;
480 -> 498 ;
499 [label=<gender &le; 0.5<br/>gini = 0.038<br/>samples = 35<br/>value = [50, 1]<br/>class = 0>, fillcolor="#e6843d"] ;
387 -> 499 ;
500 [label=<MonthlyCharges &le; -1.497<br/>gini = 0.061<br/>samples = 20<br/>value = [31, 1]<br/>class = 0>, fillcolor="#e6853f"] ;
499 -> 500 ;
501 [label=<MonthlyCharges &le; -1.502<br/>gini = 0.165<br/>samples = 7<br/>value = [10, 1]<br/>class = 0>, fillcolor="#e88e4d"] ;
500 -> 501 ;
502 [label=<gini = 0.0<br/>samples = 6<br/>value = [10, 0]<br/>class = 0>, fillcolor="#e58139"] ;
501 -> 502 ;
503 [label=<gini = 0.0<br/>samples = 1<br/>value = [0, 1]<br/>class = 1>, fillcolor="#399de5"] ;
501 -> 503 ;
504 [label=<gini = 0.0<br/>samples = 13<br/>value = [21, 0]<br/>class = 0>, fillcolor="#e58139"] ;
500 -> 504 ;
505 [label=<gini = 0.0<br/>samples = 15<br/>value = [19, 0]<br/>class = 0>, fillcolor="#e58139"] ;
499 -> 505 ;
506 [label=<MonthlyCharges &le; -1.087<br/>gini = 0.374<br/>samples = 136<br/>value = [157, 52]<br/>class = 0>, fillcolor="#eeab7b"] ;
386 -> 506 ;
507 [label=<gini = 0.0<br/>samples = 3<br/>value = [0, 5]<br/>class = 1>, fillcolor="#399de5"] ;
506 -> 507 ;
508 [label=<TotalCharges &le; -0.504<br/>gini = 0.355<br/>samples = 133<br/>value = [157, 47]<br/>class = 0>, fillcolor="#eda774"] ;
506 -> 508 ;
509 [label=<PaymentMethod &le; 2.5<br/>gini = 0.423<br/>samples = 81<br/>value = [87, 38]<br/>class = 0>, fillcolor="#f0b88f"] ;
508 -> 509 ;
510 [label=<PaymentMethod &le; 1.5<br/>gini = 0.457<br/>samples = 54<br/>value = [53, 29]<br/>class = 0>, fillcolor="#f3c6a5"] ;
509 -> 510 ;
511 [label=<StreamingMovies &le; 1.0<br/>gini = 0.364<br/>samples = 28<br/>value = [35, 11]<br/>class = 0>, fillcolor="#eda977"] ;
510 -> 511 ;
512 [label=<tenure &le; -0.812<br/>gini = 0.401<br/>samples = 21<br/>value = [26, 10]<br/>class = 0>, fillcolor="#efb185"] ;
511 -> 512 ;
513 [label=<SeniorCitizen &le; 0.5<br/>gini = 0.278<br/>samples = 16<br/>value = [25, 5]<br/>class = 0>, fillcolor="#ea9a61"] ;
512 -> 513 ;
514 [label=<Partner &le; 0.5<br/>gini = 0.204<br/>samples = 13<br/>value = [23, 3]<br/>class = 0>, fillcolor="#e89153"] ;
513 -> 514 ;
515 [label=<PaymentMethod &le; 0.5<br/>gini = 0.305<br/>samples = 10<br/>value = [13, 3]<br/>class = 0>, fillcolor="#eb9e67"] ;
514 -> 515 ;
516 [label=<gini = 0.0<br/>samples = 6<br/>value = [9, 0]<br/>class = 0>, fillcolor="#e58139"] ;
515 -> 516 ;
517 [label=<gender &le; 0.5<br/>gini = 0.49<br/>samples = 4<br/>value = [4, 3]<br/>class = 0>, fillcolor="#f8e0ce"] ;
515 -> 517 ;
518 [label=<gini = 0.0<br/>samples = 2<br/>value = [0, 3]<br/>class = 1>, fillcolor="#399de5"] ;
517 -> 518 ;
519 [label=<gini = 0.0<br/>samples = 2<br/>value = [4, 0]<br/>class = 0>, fillcolor="#e58139"] ;
517 -> 519 ;
520 [label=<gini = 0.0<br/>samples = 3<br/>value = [10, 0]<br/>class = 0>, fillcolor="#e58139"] ;
514 -> 520 ;
521 [label=<TotalCharges &le; -0.923<br/>gini = 0.5<br/>samples = 3<br/>value = [2, 2]<br/>class = 0>, fillcolor="#ffffff"] ;
513 -> 521 ;
522 [label=<gini = 0.0<br/>samples = 1<br/>value = [0, 2]<br/>class = 1>, fillcolor="#399de5"] ;
521 -> 522 ;
523 [label=<gini = 0.0<br/>samples = 2<br/>value = [2, 0]<br/>class = 0>, fillcolor="#e58139"] ;
521 -> 523 ;
524 [label=<Partner &le; 0.5<br/>gini = 0.278<br/>samples = 5<br/>value = [1, 5]<br/>class = 1>, fillcolor="#61b1ea"] ;
512 -> 524 ;
525 [label=<tenure &le; -0.71<br/>gini = 0.444<br/>samples = 3<br/>value = [1, 2]<br/>class = 1>, fillcolor="#9ccef2"] ;
524 -> 525 ;
526 [label=<gini = 0.0<br/>samples = 1<br/>value = [0, 1]<br/>class = 1>, fillcolor="#399de5"] ;
525 -> 526 ;
527 [label=<TotalCharges &le; -0.569<br/>gini = 0.5<br/>samples = 2<br/>value = [1, 1]<br/>class = 0>, fillcolor="#ffffff"] ;
525 -> 527 ;
528 [label=<gini = 0.0<br/>samples = 1<br/>value = [1, 0]<br/>class = 0>, fillcolor="#e58139"] ;
527 -> 528 ;
529 [label=<gini = 0.0<br/>samples = 1<br/>value = [0, 1]<br/>class = 1>, fillcolor="#399de5"] ;
527 -> 529 ;
530 [label=<gini = 0.0<br/>samples = 2<br/>value = [0, 3]<br/>class = 1>, fillcolor="#399de5"] ;
524 -> 530 ;
531 [label=<PaperlessBilling &le; 0.5<br/>gini = 0.18<br/>samples = 7<br/>value = [9, 1]<br/>class = 0>, fillcolor="#e88f4f"] ;
511 -> 531 ;
532 [label=<gini = 0.0<br/>samples = 3<br/>value = [5, 0]<br/>class = 0>, fillcolor="#e58139"] ;
531 -> 532 ;
533 [label=<MultipleLines &le; 1.0<br/>gini = 0.32<br/>samples = 4<br/>value = [4, 1]<br/>class = 0>, fillcolor="#eca06a"] ;
531 -> 533 ;
534 [label=<gini = 0.0<br/>samples = 3<br/>value = [4, 0]<br/>class = 0>, fillcolor="#e58139"] ;
533 -> 534 ;
535 [label=<gini = 0.0<br/>samples = 1<br/>value = [0, 1]<br/>class = 1>, fillcolor="#399de5"] ;
533 -> 535 ;
536 [label=<MonthlyCharges &le; -0.203<br/>gini = 0.5<br/>samples = 26<br/>value = [18, 18]<br/>class = 0>, fillcolor="#ffffff"] ;
510 -> 536 ;
537 [label=<MonthlyCharges &le; -0.775<br/>gini = 0.466<br/>samples = 20<br/>value = [10, 17]<br/>class = 1>, fillcolor="#add7f4"] ;
536 -> 537 ;
538 [label=<gini = 0.0<br/>samples = 1<br/>value = [1, 0]<br/>class = 0>, fillcolor="#e58139"] ;
537 -> 538 ;
539 [label=<PaperlessBilling &le; 0.5<br/>gini = 0.453<br/>samples = 19<br/>value = [9, 17]<br/>class = 1>, fillcolor="#a2d1f3"] ;
537 -> 539 ;
540 [label=<gender &le; 0.5<br/>gini = 0.494<br/>samples = 8<br/>value = [4, 5]<br/>class = 1>, fillcolor="#d7ebfa"] ;
539 -> 540 ;
541 [label=<MonthlyCharges &le; -0.328<br/>gini = 0.444<br/>samples = 6<br/>value = [4, 2]<br/>class = 0>, fillcolor="#f2c09c"] ;
540 -> 541 ;
542 [label=<gini = 0.0<br/>samples = 4<br/>value = [4, 0]<br/>class = 0>, fillcolor="#e58139"] ;
541 -> 542 ;
543 [label=<gini = 0.0<br/>samples = 2<br/>value = [0, 2]<br/>class = 1>, fillcolor="#399de5"] ;
541 -> 543 ;
544 [label=<gini = 0.0<br/>samples = 2<br/>value = [0, 3]<br/>class = 1>, fillcolor="#399de5"] ;
540 -> 544 ;
545 [label=<TotalCharges &le; -0.918<br/>gini = 0.415<br/>samples = 11<br/>value = [5, 12]<br/>class = 1>, fillcolor="#8bc6f0"] ;
539 -> 545 ;
546 [label=<gini = 0.0<br/>samples = 4<br/>value = [0, 6]<br/>class = 1>, fillcolor="#399de5"] ;
545 -> 546 ;
547 [label=<TotalCharges &le; -0.762<br/>gini = 0.496<br/>samples = 7<br/>value = [5, 6]<br/>class = 1>, fillcolor="#deeffb"] ;
545 -> 547 ;
548 [label=<MultipleLines &le; 1.0<br/>gini = 0.32<br/>samples = 3<br/>value = [4, 1]<br/>class = 0>, fillcolor="#eca06a"] ;
547 -> 548 ;
549 [label=<MonthlyCharges &le; -0.504<br/>gini = 0.444<br/>samples = 2<br/>value = [2, 1]<br/>class = 0>, fillcolor="#f2c09c"] ;
548 -> 549 ;
550 [label=<gini = 0.0<br/>samples = 1<br/>value = [2, 0]<br/>class = 0>, fillcolor="#e58139"] ;
549 -> 550 ;
551 [label=<gini = 0.0<br/>samples = 1<br/>value = [0, 1]<br/>class = 1>, fillcolor="#399de5"] ;
549 -> 551 ;
552 [label=<gini = 0.0<br/>samples = 1<br/>value = [2, 0]<br/>class = 0>, fillcolor="#e58139"] ;
548 -> 552 ;
553 [label=<TotalCharges &le; -0.671<br/>gini = 0.278<br/>samples = 4<br/>value = [1, 5]<br/>class = 1>, fillcolor="#61b1ea"] ;
547 -> 553 ;
554 [label=<gini = 0.0<br/>samples = 2<br/>value = [0, 4]<br/>class = 1>, fillcolor="#399de5"] ;
553 -> 554 ;
555 [label=<MonthlyCharges &le; -0.318<br/>gini = 0.5<br/>samples = 2<br/>value = [1, 1]<br/>class = 0>, fillcolor="#ffffff"] ;
553 -> 555 ;
556 [label=<gini = 0.0<br/>samples = 1<br/>value = [0, 1]<br/>class = 1>, fillcolor="#399de5"] ;
555 -> 556 ;
557 [label=<gini = 0.0<br/>samples = 1<br/>value = [1, 0]<br/>class = 0>, fillcolor="#e58139"] ;
555 -> 557 ;
558 [label=<Dependents &le; 0.5<br/>gini = 0.198<br/>samples = 6<br/>value = [8, 1]<br/>class = 0>, fillcolor="#e89152"] ;
536 -> 558 ;
559 [label=<gini = 0.0<br/>samples = 5<br/>value = [8, 0]<br/>class = 0>, fillcolor="#e58139"] ;
558 -> 559 ;
560 [label=<gini = 0.0<br/>samples = 1<br/>value = [0, 1]<br/>class = 1>, fillcolor="#399de5"] ;
558 -> 560 ;
561 [label=<TotalCharges &le; -0.985<br/>gini = 0.331<br/>samples = 27<br/>value = [34, 9]<br/>class = 0>, fillcolor="#eca26d"] ;
509 -> 561 ;
562 [label=<gini = 0.0<br/>samples = 1<br/>value = [0, 2]<br/>class = 1>, fillcolor="#399de5"] ;
561 -> 562 ;
563 [label=<PhoneService &le; 0.5<br/>gini = 0.283<br/>samples = 26<br/>value = [34.0, 7.0]<br/>class = 0>, fillcolor="#ea9b62"] ;
561 -> 563 ;
564 [label=<Partner &le; 0.5<br/>gini = 0.49<br/>samples = 9<br/>value = [8, 6]<br/>class = 0>, fillcolor="#f8e0ce"] ;
563 -> 564 ;
565 [label=<tenure &le; -0.771<br/>gini = 0.5<br/>samples = 7<br/>value = [6, 6]<br/>class = 0>, fillcolor="#ffffff"] ;
564 -> 565 ;
566 [label=<tenure &le; -1.138<br/>gini = 0.48<br/>samples = 6<br/>value = [4, 6]<br/>class = 1>, fillcolor="#bddef6"] ;
565 -> 566 ;
567 [label=<StreamingMovies &le; 1.0<br/>gini = 0.49<br/>samples = 4<br/>value = [4, 3]<br/>class = 0>, fillcolor="#f8e0ce"] ;
566 -> 567 ;
568 [label=<TechSupport &le; 1.0<br/>gini = 0.48<br/>samples = 3<br/>value = [2, 3]<br/>class = 1>, fillcolor="#bddef6"] ;
567 -> 568 ;
569 [label=<gini = 0.0<br/>samples = 1<br/>value = [0, 1]<br/>class = 1>, fillcolor="#399de5"] ;
568 -> 569 ;
570 [label=<gender &le; 0.5<br/>gini = 0.5<br/>samples = 2<br/>value = [2, 2]<br/>class = 0>, fillcolor="#ffffff"] ;
568 -> 570 ;
571 [label=<gini = 0.0<br/>samples = 1<br/>value = [0, 2]<br/>class = 1>, fillcolor="#399de5"] ;
570 -> 571 ;
572 [label=<gini = 0.0<br/>samples = 1<br/>value = [2, 0]<br/>class = 0>, fillcolor="#e58139"] ;
570 -> 572 ;
573 [label=<gini = 0.0<br/>samples = 1<br/>value = [2, 0]<br/>class = 0>, fillcolor="#e58139"] ;
567 -> 573 ;
574 [label=<gini = 0.0<br/>samples = 2<br/>value = [0, 3]<br/>class = 1>, fillcolor="#399de5"] ;
566 -> 574 ;
575 [label=<gini = 0.0<br/>samples = 1<br/>value = [2, 0]<br/>class = 0>, fillcolor="#e58139"] ;
565 -> 575 ;
576 [label=<gini = 0.0<br/>samples = 2<br/>value = [2, 0]<br/>class = 0>, fillcolor="#e58139"] ;
564 -> 576 ;
577 [label=<MonthlyCharges &le; -0.277<br/>gini = 0.071<br/>samples = 17<br/>value = [26, 1]<br/>class = 0>, fillcolor="#e68641"] ;
563 -> 577 ;
578 [label=<gini = 0.0<br/>samples = 12<br/>value = [21, 0]<br/>class = 0>, fillcolor="#e58139"] ;
577 -> 578 ;
579 [label=<tenure &le; -0.812<br/>gini = 0.278<br/>samples = 5<br/>value = [5, 1]<br/>class = 0>, fillcolor="#ea9a61"] ;
577 -> 579 ;
580 [label=<TotalCharges &le; -0.719<br/>gini = 0.444<br/>samples = 3<br/>value = [2, 1]<br/>class = 0>, fillcolor="#f2c09c"] ;
579 -> 580 ;
581 [label=<gini = 0.0<br/>samples = 2<br/>value = [2, 0]<br/>class = 0>, fillcolor="#e58139"] ;
580 -> 581 ;
582 [label=<gini = 0.0<br/>samples = 1<br/>value = [0, 1]<br/>class = 1>, fillcolor="#399de5"] ;
580 -> 582 ;
583 [label=<gini = 0.0<br/>samples = 2<br/>value = [3, 0]<br/>class = 0>, fillcolor="#e58139"] ;
579 -> 583 ;
584 [label=<MonthlyCharges &le; 0.126<br/>gini = 0.202<br/>samples = 52<br/>value = [70, 9]<br/>class = 0>, fillcolor="#e89152"] ;
508 -> 584 ;
585 [label=<PaymentMethod &le; 0.5<br/>gini = 0.147<br/>samples = 50<br/>value = [69, 6]<br/>class = 0>, fillcolor="#e78c4a"] ;
584 -> 585 ;
586 [label=<gini = 0.0<br/>samples = 16<br/>value = [25, 0]<br/>class = 0>, fillcolor="#e58139"] ;
585 -> 586 ;
587 [label=<SeniorCitizen &le; 0.5<br/>gini = 0.211<br/>samples = 34<br/>value = [44, 6]<br/>class = 0>, fillcolor="#e99254"] ;
585 -> 587 ;
588 [label=<MonthlyCharges &le; -0.154<br/>gini = 0.169<br/>samples = 29<br/>value = [39, 4]<br/>class = 0>, fillcolor="#e88e4d"] ;
587 -> 588 ;
589 [label=<PhoneService &le; 0.5<br/>gini = 0.278<br/>samples = 15<br/>value = [20, 4]<br/>class = 0>, fillcolor="#ea9a61"] ;
588 -> 589 ;
590 [label=<gini = 0.0<br/>samples = 1<br/>value = [0, 1]<br/>class = 1>, fillcolor="#399de5"] ;
589 -> 590 ;
591 [label=<tenure &le; -0.384<br/>gini = 0.227<br/>samples = 14<br/>value = [20, 3]<br/>class = 0>, fillcolor="#e99457"] ;
589 -> 591 ;
592 [label=<TotalCharges &le; -0.454<br/>gini = 0.48<br/>samples = 3<br/>value = [3, 2]<br/>class = 0>, fillcolor="#f6d5bd"] ;
591 -> 592 ;
593 [label=<gini = 0.0<br/>samples = 2<br/>value = [3, 0]<br/>class = 0>, fillcolor="#e58139"] ;
592 -> 593 ;
594 [label=<gini = 0.0<br/>samples = 1<br/>value = [0, 2]<br/>class = 1>, fillcolor="#399de5"] ;
592 -> 594 ;
595 [label=<gender &le; 0.5<br/>gini = 0.105<br/>samples = 11<br/>value = [17, 1]<br/>class = 0>, fillcolor="#e78845"] ;
591 -> 595 ;
596 [label=<DeviceProtection &le; 1.0<br/>gini = 0.153<br/>samples = 8<br/>value = [11, 1]<br/>class = 0>, fillcolor="#e78c4b"] ;
595 -> 596 ;
597 [label=<MultipleLines &le; 1.0<br/>gini = 0.165<br/>samples = 7<br/>value = [10, 1]<br/>class = 0>, fillcolor="#e88e4d"] ;
596 -> 597 ;
598 [label=<gini = 0.0<br/>samples = 6<br/>value = [10, 0]<br/>class = 0>, fillcolor="#e58139"] ;
597 -> 598 ;
599 [label=<gini = 0.0<br/>samples = 1<br/>value = [0, 1]<br/>class = 1>, fillcolor="#399de5"] ;
597 -> 599 ;
600 [label=<gini = 0.0<br/>samples = 1<br/>value = [1, 0]<br/>class = 0>, fillcolor="#e58139"] ;
596 -> 600 ;
601 [label=<gini = 0.0<br/>samples = 3<br/>value = [6, 0]<br/>class = 0>, fillcolor="#e58139"] ;
595 -> 601 ;
602 [label=<gini = 0.0<br/>samples = 14<br/>value = [19, 0]<br/>class = 0>, fillcolor="#e58139"] ;
588 -> 602 ;
603 [label=<OnlineBackup &le; 1.0<br/>gini = 0.408<br/>samples = 5<br/>value = [5, 2]<br/>class = 0>, fillcolor="#efb388"] ;
587 -> 603 ;
604 [label=<gini = 0.0<br/>samples = 1<br/>value = [2, 0]<br/>class = 0>, fillcolor="#e58139"] ;
603 -> 604 ;
605 [label=<tenure &le; -0.099<br/>gini = 0.48<br/>samples = 4<br/>value = [3, 2]<br/>class = 0>, fillcolor="#f6d5bd"] ;
603 -> 605 ;
606 [label=<gini = 0.0<br/>samples = 1<br/>value = [2, 0]<br/>class = 0>, fillcolor="#e58139"] ;
605 -> 606 ;
607 [label=<TotalCharges &le; -0.211<br/>gini = 0.444<br/>samples = 3<br/>value = [1, 2]<br/>class = 1>, fillcolor="#9ccef2"] ;
605 -> 607 ;
608 [label=<gini = 0.0<br/>samples = 1<br/>value = [1, 0]<br/>class = 0>, fillcolor="#e58139"] ;
607 -> 608 ;
609 [label=<gini = 0.0<br/>samples = 2<br/>value = [0, 2]<br/>class = 1>, fillcolor="#399de5"] ;
607 -> 609 ;
610 [label=<StreamingTV &le; 1.0<br/>gini = 0.375<br/>samples = 2<br/>value = [1, 3]<br/>class = 1>, fillcolor="#7bbeee"] ;
584 -> 610 ;
611 [label=<gini = 0.0<br/>samples = 1<br/>value = [0, 3]<br/>class = 1>, fillcolor="#399de5"] ;
610 -> 611 ;
612 [label=<gini = 0.0<br/>samples = 1<br/>value = [1, 0]<br/>class = 0>, fillcolor="#e58139"] ;
610 -> 612 ;
613 [label=<tenure &le; -0.893<br/>gini = 0.498<br/>samples = 941<br/>value = [710.0, 810.0]<br/>class = 1>, fillcolor="#e7f3fc"] ;
1 -> 613 ;
614 [label=<MultipleLines &le; 1.0<br/>gini = 0.402<br/>samples = 339<br/>value = [158, 410]<br/>class = 1>, fillcolor="#85c3ef"] ;
613 -> 614 ;
615 [label=<tenure &le; -1.015<br/>gini = 0.462<br/>samples = 192<br/>value = [114.0, 201.0]<br/>class = 1>, fillcolor="#a9d5f4"] ;
614 -> 615 ;
616 [label=<InternetService &le; 0.5<br/>gini = 0.437<br/>samples = 158<br/>value = [85, 178]<br/>class = 1>, fillcolor="#98ccf1"] ;
615 -> 616 ;
617 [label=<OnlineBackup &le; 1.0<br/>gini = 0.444<br/>samples = 10<br/>value = [8, 4]<br/>class = 0>, fillcolor="#f2c09c"] ;
616 -> 617 ;
618 [label=<TotalCharges &le; -0.896<br/>gini = 0.494<br/>samples = 8<br/>value = [5, 4]<br/>class = 0>, fillcolor="#fae6d7"] ;
617 -> 618 ;
619 [label=<gini = 0.0<br/>samples = 2<br/>value = [2, 0]<br/>class = 0>, fillcolor="#e58139"] ;
618 -> 619 ;
620 [label=<Dependents &le; 0.5<br/>gini = 0.49<br/>samples = 6<br/>value = [3, 4]<br/>class = 1>, fillcolor="#cee6f8"] ;
618 -> 620 ;
621 [label=<TotalCharges &le; -0.844<br/>gini = 0.32<br/>samples = 4<br/>value = [1, 4]<br/>class = 1>, fillcolor="#6ab6ec"] ;
620 -> 621 ;
622 [label=<gini = 0.0<br/>samples = 2<br/>value = [0, 2]<br/>class = 1>, fillcolor="#399de5"] ;
621 -> 622 ;
623 [label=<gender &le; 0.5<br/>gini = 0.444<br/>samples = 2<br/>value = [1, 2]<br/>class = 1>, fillcolor="#9ccef2"] ;
621 -> 623 ;
624 [label=<gini = 0.0<br/>samples = 1<br/>value = [0, 2]<br/>class = 1>, fillcolor="#399de5"] ;
623 -> 624 ;
625 [label=<gini = 0.0<br/>samples = 1<br/>value = [1, 0]<br/>class = 0>, fillcolor="#e58139"] ;
623 -> 625 ;
626 [label=<gini = 0.0<br/>samples = 2<br/>value = [2, 0]<br/>class = 0>, fillcolor="#e58139"] ;
620 -> 626 ;
627 [label=<gini = 0.0<br/>samples = 2<br/>value = [3, 0]<br/>class = 0>, fillcolor="#e58139"] ;
617 -> 627 ;
628 [label=<gender &le; 0.5<br/>gini = 0.425<br/>samples = 148<br/>value = [77, 174]<br/>class = 1>, fillcolor="#91c8f1"] ;
616 -> 628 ;
629 [label=<StreamingTV &le; 1.0<br/>gini = 0.385<br/>samples = 88<br/>value = [40.0, 114.0]<br/>class = 1>, fillcolor="#7ebfee"] ;
628 -> 629 ;
630 [label=<MonthlyCharges &le; 0.213<br/>gini = 0.449<br/>samples = 57<br/>value = [32.0, 62.0]<br/>class = 1>, fillcolor="#9fd0f2"] ;
629 -> 630 ;
631 [label=<PaymentMethod &le; 1.5<br/>gini = 0.331<br/>samples = 26<br/>value = [9, 34]<br/>class = 1>, fillcolor="#6db7ec"] ;
630 -> 631 ;
632 [label=<PaymentMethod &le; 0.5<br/>gini = 0.5<br/>samples = 4<br/>value = [3, 3]<br/>class = 0>, fillcolor="#ffffff"] ;
631 -> 632 ;
633 [label=<gini = 0.0<br/>samples = 2<br/>value = [0, 3]<br/>class = 1>, fillcolor="#399de5"] ;
632 -> 633 ;
634 [label=<gini = 0.0<br/>samples = 2<br/>value = [3, 0]<br/>class = 0>, fillcolor="#e58139"] ;
632 -> 634 ;
635 [label=<PaperlessBilling &le; 0.5<br/>gini = 0.272<br/>samples = 22<br/>value = [6, 31]<br/>class = 1>, fillcolor="#5fb0ea"] ;
631 -> 635 ;
636 [label=<gini = 0.0<br/>samples = 2<br/>value = [0, 2]<br/>class = 1>, fillcolor="#399de5"] ;
635 -> 636 ;
637 [label=<TotalCharges &le; -0.838<br/>gini = 0.284<br/>samples = 20<br/>value = [6.0, 29.0]<br/>class = 1>, fillcolor="#62b1ea"] ;
635 -> 637 ;
638 [label=<PaymentMethod &le; 2.5<br/>gini = 0.251<br/>samples = 19<br/>value = [5, 29]<br/>class = 1>, fillcolor="#5baee9"] ;
637 -> 638 ;
639 [label=<TotalCharges &le; -0.976<br/>gini = 0.159<br/>samples = 13<br/>value = [2, 21]<br/>class = 1>, fillcolor="#4ca6e7"] ;
638 -> 639 ;
640 [label=<TotalCharges &le; -0.976<br/>gini = 0.5<br/>samples = 2<br/>value = [1, 1]<br/>class = 0>, fillcolor="#ffffff"] ;
639 -> 640 ;
641 [label=<gini = 0.0<br/>samples = 1<br/>value = [0, 1]<br/>class = 1>, fillcolor="#399de5"] ;
640 -> 641 ;
642 [label=<gini = 0.0<br/>samples = 1<br/>value = [1, 0]<br/>class = 0>, fillcolor="#e58139"] ;
640 -> 642 ;
643 [label=<tenure &le; -1.26<br/>gini = 0.091<br/>samples = 11<br/>value = [1, 20]<br/>class = 1>, fillcolor="#43a2e6"] ;
639 -> 643 ;
644 [label=<gini = 0.0<br/>samples = 4<br/>value = [0, 7]<br/>class = 1>, fillcolor="#399de5"] ;
643 -> 644 ;
645 [label=<TotalCharges &le; -0.952<br/>gini = 0.133<br/>samples = 7<br/>value = [1, 13]<br/>class = 1>, fillcolor="#48a5e7"] ;
643 -> 645 ;
646 [label=<gini = 0.0<br/>samples = 1<br/>value = [1, 0]<br/>class = 0>, fillcolor="#e58139"] ;
645 -> 646 ;
647 [label=<gini = 0.0<br/>samples = 6<br/>value = [0, 13]<br/>class = 1>, fillcolor="#399de5"] ;
645 -> 647 ;
648 [label=<SeniorCitizen &le; 0.5<br/>gini = 0.397<br/>samples = 6<br/>value = [3, 8]<br/>class = 1>, fillcolor="#83c2ef"] ;
638 -> 648 ;
649 [label=<TotalCharges &le; -0.976<br/>gini = 0.32<br/>samples = 5<br/>value = [2, 8]<br/>class = 1>, fillcolor="#6ab6ec"] ;
648 -> 649 ;
650 [label=<gini = 0.0<br/>samples = 3<br/>value = [0, 5]<br/>class = 1>, fillcolor="#399de5"] ;
649 -> 650 ;
651 [label=<MonthlyCharges &le; 0.198<br/>gini = 0.48<br/>samples = 2<br/>value = [2, 3]<br/>class = 1>, fillcolor="#bddef6"] ;
649 -> 651 ;
652 [label=<gini = 0.0<br/>samples = 1<br/>value = [2, 0]<br/>class = 0>, fillcolor="#e58139"] ;
651 -> 652 ;
653 [label=<gini = 0.0<br/>samples = 1<br/>value = [0, 3]<br/>class = 1>, fillcolor="#399de5"] ;
651 -> 653 ;
654 [label=<gini = 0.0<br/>samples = 1<br/>value = [1, 0]<br/>class = 0>, fillcolor="#e58139"] ;
648 -> 654 ;
655 [label=<gini = 0.0<br/>samples = 1<br/>value = [1, 0]<br/>class = 0>, fillcolor="#e58139"] ;
637 -> 655 ;
656 [label=<MonthlyCharges &le; 0.268<br/>gini = 0.495<br/>samples = 31<br/>value = [23.0, 28.0]<br/>class = 1>, fillcolor="#dceefa"] ;
630 -> 656 ;
657 [label=<gini = 0.0<br/>samples = 3<br/>value = [6, 0]<br/>class = 0>, fillcolor="#e58139"] ;
656 -> 657 ;
658 [label=<TotalCharges &le; -0.83<br/>gini = 0.47<br/>samples = 28<br/>value = [17, 28]<br/>class = 1>, fillcolor="#b1d8f5"] ;
656 -> 658 ;
659 [label=<PaymentMethod &le; 2.5<br/>gini = 0.498<br/>samples = 23<br/>value = [16, 18]<br/>class = 1>, fillcolor="#e9f4fc"] ;
658 -> 659 ;
660 [label=<tenure &le; -1.138<br/>gini = 0.444<br/>samples = 20<br/>value = [9, 18]<br/>class = 1>, fillcolor="#9ccef2"] ;
659 -> 660 ;
661 [label=<PaperlessBilling &le; 0.5<br/>gini = 0.403<br/>samples = 19<br/>value = [7.0, 18.0]<br/>class = 1>, fillcolor="#86c3ef"] ;
660 -> 661 ;
662 [label=<StreamingMovies &le; 1.0<br/>gini = 0.5<br/>samples = 4<br/>value = [3, 3]<br/>class = 0>, fillcolor="#ffffff"] ;
661 -> 662 ;
663 [label=<gini = 0.0<br/>samples = 2<br/>value = [3, 0]<br/>class = 0>, fillcolor="#e58139"] ;
662 -> 663 ;
664 [label=<gini = 0.0<br/>samples = 2<br/>value = [0, 3]<br/>class = 1>, fillcolor="#399de5"] ;
662 -> 664 ;
665 [label=<TotalCharges &le; -0.924<br/>gini = 0.332<br/>samples = 15<br/>value = [4, 15]<br/>class = 1>, fillcolor="#6eb7ec"] ;
661 -> 665 ;
666 [label=<MonthlyCharges &le; 0.509<br/>gini = 0.124<br/>samples = 11<br/>value = [1, 14]<br/>class = 1>, fillcolor="#47a4e7"] ;
665 -> 666 ;
667 [label=<gini = 0.0<br/>samples = 7<br/>value = [0, 10]<br/>class = 1>, fillcolor="#399de5"] ;
666 -> 667 ;
668 [label=<OnlineBackup &le; 1.0<br/>gini = 0.32<br/>samples = 4<br/>value = [1, 4]<br/>class = 1>, fillcolor="#6ab6ec"] ;
666 -> 668 ;
669 [label=<tenure &le; -1.26<br/>gini = 0.444<br/>samples = 2<br/>value = [1, 2]<br/>class = 1>, fillcolor="#9ccef2"] ;
668 -> 669 ;
670 [label=<gini = 0.0<br/>samples = 1<br/>value = [0, 2]<br/>class = 1>, fillcolor="#399de5"] ;
669 -> 670 ;
671 [label=<gini = 0.0<br/>samples = 1<br/>value = [1, 0]<br/>class = 0>, fillcolor="#e58139"] ;
669 -> 671 ;
672 [label=<gini = 0.0<br/>samples = 2<br/>value = [0, 2]<br/>class = 1>, fillcolor="#399de5"] ;
668 -> 672 ;
673 [label=<StreamingMovies &le; 1.0<br/>gini = 0.375<br/>samples = 4<br/>value = [3, 1]<br/>class = 0>, fillcolor="#eeab7b"] ;
665 -> 673 ;
674 [label=<gini = 0.0<br/>samples = 2<br/>value = [2, 0]<br/>class = 0>, fillcolor="#e58139"] ;
673 -> 674 ;
675 [label=<MonthlyCharges &le; 0.539<br/>gini = 0.5<br/>samples = 2<br/>value = [1, 1]<br/>class = 0>, fillcolor="#ffffff"] ;
673 -> 675 ;
676 [label=<gini = 0.0<br/>samples = 1<br/>value = [0, 1]<br/>class = 1>, fillcolor="#399de5"] ;
675 -> 676 ;
677 [label=<gini = 0.0<br/>samples = 1<br/>value = [1, 0]<br/>class = 0>, fillcolor="#e58139"] ;
675 -> 677 ;
678 [label=<gini = 0.0<br/>samples = 1<br/>value = [2, 0]<br/>class = 0>, fillcolor="#e58139"] ;
660 -> 678 ;
679 [label=<gini = 0.0<br/>samples = 3<br/>value = [7, 0]<br/>class = 0>, fillcolor="#e58139"] ;
659 -> 679 ;
680 [label=<TotalCharges &le; -0.804<br/>gini = 0.165<br/>samples = 5<br/>value = [1, 10]<br/>class = 1>, fillcolor="#4da7e8"] ;
658 -> 680 ;
681 [label=<gini = 0.0<br/>samples = 3<br/>value = [0, 6]<br/>class = 1>, fillcolor="#399de5"] ;
680 -> 681 ;
682 [label=<OnlineBackup &le; 1.0<br/>gini = 0.32<br/>samples = 2<br/>value = [1, 4]<br/>class = 1>, fillcolor="#6ab6ec"] ;
680 -> 682 ;
683 [label=<gini = 0.0<br/>samples = 1<br/>value = [1, 0]<br/>class = 0>, fillcolor="#e58139"] ;
682 -> 683 ;
684 [label=<gini = 0.0<br/>samples = 1<br/>value = [0, 4]<br/>class = 1>, fillcolor="#399de5"] ;
682 -> 684 ;
685 [label=<DeviceProtection &le; 1.0<br/>gini = 0.231<br/>samples = 31<br/>value = [8, 52]<br/>class = 1>, fillcolor="#57ace9"] ;
629 -> 685 ;
686 [label=<MonthlyCharges &le; 0.815<br/>gini = 0.287<br/>samples = 25<br/>value = [8, 38]<br/>class = 1>, fillcolor="#63b2ea"] ;
685 -> 686 ;
687 [label=<MonthlyCharges &le; 0.503<br/>gini = 0.114<br/>samples = 16<br/>value = [2, 31]<br/>class = 1>, fillcolor="#46a3e7"] ;
686 -> 687 ;
688 [label=<gini = 0.0<br/>samples = 7<br/>value = [0, 13]<br/>class = 1>, fillcolor="#399de5"] ;
687 -> 688 ;
689 [label=<MonthlyCharges &le; 0.514<br/>gini = 0.18<br/>samples = 9<br/>value = [2, 18]<br/>class = 1>, fillcolor="#4fa8e8"] ;
687 -> 689 ;
690 [label=<PaperlessBilling &le; 0.5<br/>gini = 0.375<br/>samples = 2<br/>value = [1, 3]<br/>class = 1>, fillcolor="#7bbeee"] ;
689 -> 690 ;
691 [label=<gini = 0.0<br/>samples = 1<br/>value = [1, 0]<br/>class = 0>, fillcolor="#e58139"] ;
690 -> 691 ;
692 [label=<gini = 0.0<br/>samples = 1<br/>value = [0, 3]<br/>class = 1>, fillcolor="#399de5"] ;
690 -> 692 ;
693 [label=<OnlineBackup &le; 1.0<br/>gini = 0.117<br/>samples = 7<br/>value = [1, 15]<br/>class = 1>, fillcolor="#46a4e7"] ;
689 -> 693 ;
694 [label=<gini = 0.0<br/>samples = 5<br/>value = [0, 12]<br/>class = 1>, fillcolor="#399de5"] ;
693 -> 694 ;
695 [label=<SeniorCitizen &le; 0.5<br/>gini = 0.375<br/>samples = 2<br/>value = [1, 3]<br/>class = 1>, fillcolor="#7bbeee"] ;
693 -> 695 ;
696 [label=<gini = 0.0<br/>samples = 1<br/>value = [0, 3]<br/>class = 1>, fillcolor="#399de5"] ;
695 -> 696 ;
697 [label=<gini = 0.0<br/>samples = 1<br/>value = [1, 0]<br/>class = 0>, fillcolor="#e58139"] ;
695 -> 697 ;
698 [label=<MonthlyCharges &le; 0.819<br/>gini = 0.497<br/>samples = 9<br/>value = [6, 7]<br/>class = 1>, fillcolor="#e3f1fb"] ;
686 -> 698 ;
699 [label=<gini = 0.0<br/>samples = 1<br/>value = [3, 0]<br/>class = 0>, fillcolor="#e58139"] ;
698 -> 699 ;
700 [label=<PaymentMethod &le; 2.5<br/>gini = 0.42<br/>samples = 8<br/>value = [3, 7]<br/>class = 1>, fillcolor="#8ec7f0"] ;
698 -> 700 ;
701 [label=<MonthlyCharges &le; 1.028<br/>gini = 0.444<br/>samples = 7<br/>value = [3, 6]<br/>class = 1>, fillcolor="#9ccef2"] ;
700 -> 701 ;
702 [label=<OnlineBackup &le; 1.0<br/>gini = 0.245<br/>samples = 6<br/>value = [1, 6]<br/>class = 1>, fillcolor="#5aade9"] ;
701 -> 702 ;
703 [label=<gini = 0.0<br/>samples = 4<br/>value = [0, 5]<br/>class = 1>, fillcolor="#399de5"] ;
702 -> 703 ;
704 [label=<StreamingMovies &le; 1.0<br/>gini = 0.5<br/>samples = 2<br/>value = [1, 1]<br/>class = 0>, fillcolor="#ffffff"] ;
702 -> 704 ;
705 [label=<gini = 0.0<br/>samples = 1<br/>value = [1, 0]<br/>class = 0>, fillcolor="#e58139"] ;
704 -> 705 ;
706 [label=<gini = 0.0<br/>samples = 1<br/>value = [0, 1]<br/>class = 1>, fillcolor="#399de5"] ;
704 -> 706 ;
707 [label=<gini = 0.0<br/>samples = 1<br/>value = [2, 0]<br/>class = 0>, fillcolor="#e58139"] ;
701 -> 707 ;
708 [label=<gini = 0.0<br/>samples = 1<br/>value = [0, 1]<br/>class = 1>, fillcolor="#399de5"] ;
700 -> 708 ;
709 [label=<gini = 0.0<br/>samples = 6<br/>value = [0, 14]<br/>class = 1>, fillcolor="#399de5"] ;
685 -> 709 ;
710 [label=<DeviceProtection &le; 1.0<br/>gini = 0.472<br/>samples = 60<br/>value = [37, 60]<br/>class = 1>, fillcolor="#b3d9f5"] ;
628 -> 710 ;
711 [label=<SeniorCitizen &le; 0.5<br/>gini = 0.491<br/>samples = 49<br/>value = [35, 46]<br/>class = 1>, fillcolor="#d0e8f9"] ;
710 -> 711 ;
712 [label=<OnlineSecurity &le; 1.0<br/>gini = 0.476<br/>samples = 41<br/>value = [27, 42]<br/>class = 1>, fillcolor="#b8dcf6"] ;
711 -> 712 ;
713 [label=<MonthlyCharges &le; 0.206<br/>gini = 0.414<br/>samples = 35<br/>value = [17, 41]<br/>class = 1>, fillcolor="#8bc6f0"] ;
712 -> 713 ;
714 [label=<Partner &le; 0.5<br/>gini = 0.133<br/>samples = 8<br/>value = [1, 13]<br/>class = 1>, fillcolor="#48a5e7"] ;
713 -> 714 ;
715 [label=<gini = 0.0<br/>samples = 5<br/>value = [0, 7]<br/>class = 1>, fillcolor="#399de5"] ;
714 -> 715 ;
716 [label=<PaymentMethod &le; 1.0<br/>gini = 0.245<br/>samples = 3<br/>value = [1, 6]<br/>class = 1>, fillcolor="#5aade9"] ;
714 -> 716 ;
717 [label=<gini = 0.0<br/>samples = 1<br/>value = [0, 3]<br/>class = 1>, fillcolor="#399de5"] ;
716 -> 717 ;
718 [label=<TotalCharges &le; -0.909<br/>gini = 0.375<br/>samples = 2<br/>value = [1, 3]<br/>class = 1>, fillcolor="#7bbeee"] ;
716 -> 718 ;
719 [label=<gini = 0.0<br/>samples = 1<br/>value = [0, 3]<br/>class = 1>, fillcolor="#399de5"] ;
718 -> 719 ;
720 [label=<gini = 0.0<br/>samples = 1<br/>value = [1, 0]<br/>class = 0>, fillcolor="#e58139"] ;
718 -> 720 ;
721 [label=<PaperlessBilling &le; 0.5<br/>gini = 0.463<br/>samples = 27<br/>value = [16, 28]<br/>class = 1>, fillcolor="#aad5f4"] ;
713 -> 721 ;
722 [label=<Partner &le; 0.5<br/>gini = 0.48<br/>samples = 4<br/>value = [3, 2]<br/>class = 0>, fillcolor="#f6d5bd"] ;
721 -> 722 ;
723 [label=<MonthlyCharges &le; 0.399<br/>gini = 0.444<br/>samples = 3<br/>value = [1, 2]<br/>class = 1>, fillcolor="#9ccef2"] ;
722 -> 723 ;
724 [label=<gini = 0.0<br/>samples = 1<br/>value = [1, 0]<br/>class = 0>, fillcolor="#e58139"] ;
723 -> 724 ;
725 [label=<gini = 0.0<br/>samples = 2<br/>value = [0, 2]<br/>class = 1>, fillcolor="#399de5"] ;
723 -> 725 ;
726 [label=<gini = 0.0<br/>samples = 1<br/>value = [2, 0]<br/>class = 0>, fillcolor="#e58139"] ;
722 -> 726 ;
727 [label=<MonthlyCharges &le; 0.22<br/>gini = 0.444<br/>samples = 23<br/>value = [13, 26]<br/>class = 1>, fillcolor="#9ccef2"] ;
721 -> 727 ;
728 [label=<gini = 0.0<br/>samples = 1<br/>value = [4, 0]<br/>class = 0>, fillcolor="#e58139"] ;
727 -> 728 ;
729 [label=<MonthlyCharges &le; 0.885<br/>gini = 0.382<br/>samples = 22<br/>value = [9, 26]<br/>class = 1>, fillcolor="#7ebfee"] ;
727 -> 729 ;
730 [label=<StreamingMovies &le; 1.0<br/>gini = 0.334<br/>samples = 21<br/>value = [7, 26]<br/>class = 1>, fillcolor="#6eb7ec"] ;
729 -> 730 ;
731 [label=<TechSupport &le; 1.0<br/>gini = 0.255<br/>samples = 11<br/>value = [3, 17]<br/>class = 1>, fillcolor="#5caeea"] ;
730 -> 731 ;
732 [label=<StreamingTV &le; 1.0<br/>gini = 0.208<br/>samples = 9<br/>value = [2, 15]<br/>class = 1>, fillcolor="#53aae8"] ;
731 -> 732 ;
733 [label=<gini = 0.0<br/>samples = 2<br/>value = [0, 4]<br/>class = 1>, fillcolor="#399de5"] ;
732 -> 733 ;
734 [label=<TotalCharges &le; -0.958<br/>gini = 0.26<br/>samples = 7<br/>value = [2, 11]<br/>class = 1>, fillcolor="#5dafea"] ;
732 -> 734 ;
735 [label=<MonthlyCharges &le; 0.499<br/>gini = 0.5<br/>samples = 2<br/>value = [2, 2]<br/>class = 0>, fillcolor="#ffffff"] ;
734 -> 735 ;
736 [label=<gini = 0.0<br/>samples = 1<br/>value = [0, 2]<br/>class = 1>, fillcolor="#399de5"] ;
735 -> 736 ;
737 [label=<gini = 0.0<br/>samples = 1<br/>value = [2, 0]<br/>class = 0>, fillcolor="#e58139"] ;
735 -> 737 ;
738 [label=<gini = 0.0<br/>samples = 5<br/>value = [0, 9]<br/>class = 1>, fillcolor="#399de5"] ;
734 -> 738 ;
739 [label=<PaymentMethod &le; 2.5<br/>gini = 0.444<br/>samples = 2<br/>value = [1, 2]<br/>class = 1>, fillcolor="#9ccef2"] ;
731 -> 739 ;
740 [label=<gini = 0.0<br/>samples = 1<br/>value = [0, 2]<br/>class = 1>, fillcolor="#399de5"] ;
739 -> 740 ;
741 [label=<gini = 0.0<br/>samples = 1<br/>value = [1, 0]<br/>class = 0>, fillcolor="#e58139"] ;
739 -> 741 ;
742 [label=<Partner &le; 0.5<br/>gini = 0.426<br/>samples = 10<br/>value = [4, 9]<br/>class = 1>, fillcolor="#91c9f1"] ;
730 -> 742 ;
743 [label=<Dependents &le; 0.5<br/>gini = 0.444<br/>samples = 7<br/>value = [3, 6]<br/>class = 1>, fillcolor="#9ccef2"] ;
742 -> 743 ;
744 [label=<OnlineBackup &le; 1.0<br/>gini = 0.469<br/>samples = 6<br/>value = [3, 5]<br/>class = 1>, fillcolor="#b0d8f5"] ;
743 -> 744 ;
745 [label=<TotalCharges &le; -0.968<br/>gini = 0.408<br/>samples = 5<br/>value = [2, 5]<br/>class = 1>, fillcolor="#88c4ef"] ;
744 -> 745 ;
746 [label=<gini = 0.0<br/>samples = 1<br/>value = [0, 3]<br/>class = 1>, fillcolor="#399de5"] ;
745 -> 746 ;
747 [label=<StreamingTV &le; 1.0<br/>gini = 0.5<br/>samples = 4<br/>value = [2, 2]<br/>class = 0>, fillcolor="#ffffff"] ;
745 -> 747 ;
748 [label=<gini = 0.0<br/>samples = 1<br/>value = [1, 0]<br/>class = 0>, fillcolor="#e58139"] ;
747 -> 748 ;
749 [label=<MonthlyCharges &le; 0.799<br/>gini = 0.444<br/>samples = 3<br/>value = [1, 2]<br/>class = 1>, fillcolor="#9ccef2"] ;
747 -> 749 ;
750 [label=<gini = 0.0<br/>samples = 1<br/>value = [0, 1]<br/>class = 1>, fillcolor="#399de5"] ;
749 -> 750 ;
751 [label=<TotalCharges &le; -0.968<br/>gini = 0.5<br/>samples = 2<br/>value = [1, 1]<br/>class = 0>, fillcolor="#ffffff"] ;
749 -> 751 ;
752 [label=<gini = 0.0<br/>samples = 1<br/>value = [1, 0]<br/>class = 0>, fillcolor="#e58139"] ;
751 -> 752 ;
753 [label=<gini = 0.0<br/>samples = 1<br/>value = [0, 1]<br/>class = 1>, fillcolor="#399de5"] ;
751 -> 753 ;
754 [label=<gini = 0.0<br/>samples = 1<br/>value = [1, 0]<br/>class = 0>, fillcolor="#e58139"] ;
744 -> 754 ;
755 [label=<gini = 0.0<br/>samples = 1<br/>value = [0, 1]<br/>class = 1>, fillcolor="#399de5"] ;
743 -> 755 ;
756 [label=<TotalCharges &le; -0.969<br/>gini = 0.375<br/>samples = 3<br/>value = [1, 3]<br/>class = 1>, fillcolor="#7bbeee"] ;
742 -> 756 ;
757 [label=<gini = 0.0<br/>samples = 1<br/>value = [1, 0]<br/>class = 0>, fillcolor="#e58139"] ;
756 -> 757 ;
758 [label=<gini = 0.0<br/>samples = 2<br/>value = [0, 3]<br/>class = 1>, fillcolor="#399de5"] ;
756 -> 758 ;
759 [label=<gini = 0.0<br/>samples = 1<br/>value = [2, 0]<br/>class = 0>, fillcolor="#e58139"] ;
729 -> 759 ;
760 [label=<OnlineBackup &le; 1.0<br/>gini = 0.165<br/>samples = 6<br/>value = [10, 1]<br/>class = 0>, fillcolor="#e88e4d"] ;
712 -> 760 ;
761 [label=<TotalCharges &le; -0.948<br/>gini = 0.375<br/>samples = 3<br/>value = [3, 1]<br/>class = 0>, fillcolor="#eeab7b"] ;
760 -> 761 ;
762 [label=<gini = 0.0<br/>samples = 1<br/>value = [0, 1]<br/>class = 1>, fillcolor="#399de5"] ;
761 -> 762 ;
763 [label=<gini = 0.0<br/>samples = 2<br/>value = [3, 0]<br/>class = 0>, fillcolor="#e58139"] ;
761 -> 763 ;
764 [label=<gini = 0.0<br/>samples = 3<br/>value = [7, 0]<br/>class = 0>, fillcolor="#e58139"] ;
760 -> 764 ;
765 [label=<StreamingTV &le; 1.0<br/>gini = 0.444<br/>samples = 8<br/>value = [8, 4]<br/>class = 0>, fillcolor="#f2c09c"] ;
711 -> 765 ;
766 [label=<PaymentMethod &le; 2.5<br/>gini = 0.397<br/>samples = 7<br/>value = [8, 3]<br/>class = 0>, fillcolor="#efb083"] ;
765 -> 766 ;
767 [label=<TotalCharges &le; -0.977<br/>gini = 0.346<br/>samples = 5<br/>value = [7, 2]<br/>class = 0>, fillcolor="#eca572"] ;
766 -> 767 ;
768 [label=<gini = 0.0<br/>samples = 1<br/>value = [0, 2]<br/>class = 1>, fillcolor="#399de5"] ;
767 -> 768 ;
769 [label=<gini = 0.0<br/>samples = 4<br/>value = [7, 0]<br/>class = 0>, fillcolor="#e58139"] ;
767 -> 769 ;
770 [label=<TotalCharges &le; -0.852<br/>gini = 0.5<br/>samples = 2<br/>value = [1, 1]<br/>class = 0>, fillcolor="#ffffff"] ;
766 -> 770 ;
771 [label=<gini = 0.0<br/>samples = 1<br/>value = [0, 1]<br/>class = 1>, fillcolor="#399de5"] ;
770 -> 771 ;
772 [label=<gini = 0.0<br/>samples = 1<br/>value = [1, 0]<br/>class = 0>, fillcolor="#e58139"] ;
770 -> 772 ;
773 [label=<gini = 0.0<br/>samples = 1<br/>value = [0, 1]<br/>class = 1>, fillcolor="#399de5"] ;
765 -> 773 ;
774 [label=<SeniorCitizen &le; 0.5<br/>gini = 0.219<br/>samples = 11<br/>value = [2, 14]<br/>class = 1>, fillcolor="#55abe9"] ;
710 -> 774 ;
775 [label=<StreamingTV &le; 1.0<br/>gini = 0.124<br/>samples = 10<br/>value = [1, 14]<br/>class = 1>, fillcolor="#47a4e7"] ;
774 -> 775 ;
776 [label=<Partner &le; 0.5<br/>gini = 0.219<br/>samples = 5<br/>value = [1, 7]<br/>class = 1>, fillcolor="#55abe9"] ;
775 -> 776 ;
777 [label=<StreamingMovies &le; 1.0<br/>gini = 0.375<br/>samples = 3<br/>value = [1, 3]<br/>class = 1>, fillcolor="#7bbeee"] ;
776 -> 777 ;
778 [label=<PaymentMethod &le; 2.5<br/>gini = 0.5<br/>samples = 2<br/>value = [1, 1]<br/>class = 0>, fillcolor="#ffffff"] ;
777 -> 778 ;
779 [label=<gini = 0.0<br/>samples = 1<br/>value = [1, 0]<br/>class = 0>, fillcolor="#e58139"] ;
778 -> 779 ;
780 [label=<gini = 0.0<br/>samples = 1<br/>value = [0, 1]<br/>class = 1>, fillcolor="#399de5"] ;
778 -> 780 ;
781 [label=<gini = 0.0<br/>samples = 1<br/>value = [0, 2]<br/>class = 1>, fillcolor="#399de5"] ;
777 -> 781 ;
782 [label=<gini = 0.0<br/>samples = 2<br/>value = [0, 4]<br/>class = 1>, fillcolor="#399de5"] ;
776 -> 782 ;
783 [label=<gini = 0.0<br/>samples = 5<br/>value = [0, 7]<br/>class = 1>, fillcolor="#399de5"] ;
775 -> 783 ;
784 [label=<gini = 0.0<br/>samples = 1<br/>value = [1, 0]<br/>class = 0>, fillcolor="#e58139"] ;
774 -> 784 ;
785 [label=<TotalCharges &le; -0.692<br/>gini = 0.493<br/>samples = 34<br/>value = [29, 23]<br/>class = 0>, fillcolor="#fae5d6"] ;
615 -> 785 ;
786 [label=<InternetService &le; 0.5<br/>gini = 0.34<br/>samples = 15<br/>value = [18, 5]<br/>class = 0>, fillcolor="#eca470"] ;
785 -> 786 ;
787 [label=<gini = 0.0<br/>samples = 1<br/>value = [0, 2]<br/>class = 1>, fillcolor="#399de5"] ;
786 -> 787 ;
788 [label=<PaymentMethod &le; 0.5<br/>gini = 0.245<br/>samples = 14<br/>value = [18, 3]<br/>class = 0>, fillcolor="#e9965a"] ;
786 -> 788 ;
789 [label=<gini = 0.0<br/>samples = 3<br/>value = [3, 0]<br/>class = 0>, fillcolor="#e58139"] ;
788 -> 789 ;
790 [label=<tenure &le; -0.934<br/>gini = 0.278<br/>samples = 11<br/>value = [15, 3]<br/>class = 0>, fillcolor="#ea9a61"] ;
788 -> 790 ;
791 [label=<PaperlessBilling &le; 0.5<br/>gini = 0.208<br/>samples = 10<br/>value = [15, 2]<br/>class = 0>, fillcolor="#e89253"] ;
790 -> 791 ;
792 [label=<gini = 0.0<br/>samples = 3<br/>value = [6, 0]<br/>class = 0>, fillcolor="#e58139"] ;
791 -> 792 ;
793 [label=<TotalCharges &le; -0.721<br/>gini = 0.298<br/>samples = 7<br/>value = [9, 2]<br/>class = 0>, fillcolor="#eb9d65"] ;
791 -> 793 ;
794 [label=<OnlineSecurity &le; 1.0<br/>gini = 0.48<br/>samples = 4<br/>value = [3, 2]<br/>class = 0>, fillcolor="#f6d5bd"] ;
793 -> 794 ;
795 [label=<OnlineBackup &le; 1.0<br/>gini = 0.375<br/>samples = 3<br/>value = [3, 1]<br/>class = 0>, fillcolor="#eeab7b"] ;
794 -> 795 ;
796 [label=<gini = 0.0<br/>samples = 2<br/>value = [3, 0]<br/>class = 0>, fillcolor="#e58139"] ;
795 -> 796 ;
797 [label=<gini = 0.0<br/>samples = 1<br/>value = [0, 1]<br/>class = 1>, fillcolor="#399de5"] ;
795 -> 797 ;
798 [label=<gini = 0.0<br/>samples = 1<br/>value = [0, 1]<br/>class = 1>, fillcolor="#399de5"] ;
794 -> 798 ;
799 [label=<gini = 0.0<br/>samples = 3<br/>value = [6, 0]<br/>class = 0>, fillcolor="#e58139"] ;
793 -> 799 ;
